{"learner":{"attributes":{"best_iteration":"2","best_score":"1.7915009849565524"},"feature_names":[],"feature_types":[],"gradient_booster":{"model":{"gbtree_model_param":{"num_parallel_tree":"1","num_trees":"318"},"iteration_indptr":[0,6,12,18,24,30,36,42,48,54,60,66,72,78,84,90,96,102,108,114,120,126,132,138,144,150,156,162,168,174,180,186,192,198,204,210,216,222,228,234,240,246,252,258,264,270,276,282,288,294,300,306,312,318],"tree_info":[0,1,2,3,4,5,0,1,2,3,4,5,0,1,2,3,4,5,0,1,2,3,4,5,0,1,2,3,4,5,0,1,2,3,4,5,0,1,2,3,4,5,0,1,2,3,4,5,0,1,2,3,4,5,0,1,2,3,4,5,0,1,2,3,4,5,0,1,2,3,4,5,0,1,2,3,4,5,0,1,2,3,4,5,0,1,2,3,4,5,0,1,2,3,4,5,0,1,2,3,4,5,0,1,2,3,4,5,0,1,2,3,4,5,0,1,2,3,4,5,0,1,2,3,4,5,0,1,2,3,4,5,0,1,2,3,4,5,0,1,2,3,4,5,0,1,2,3,4,5,0,1,2,3,4,5,0,1,2,3,4,5,0,1,2,3,4,5,0,1,2,3,4,5,0,1,2,3,4,5,0,1,2,3,4,5,0,1,2,3,4,5,0,1,2,3,4,5,0,1,2,3,4,5,0,1,2,3,4,5,0,1,2,3,4,5,0,1,2,3,4,5,0,1,2,3,4,5,0,1,2,3,4,5,0,1,2,3,4,5,0,1,2,3,4,5,0,1,2,3,4,5,0,1,2,3,4,5,0,1,2,3,4,5,0,1,2,3,4,5,0,1,2,3,4,5,0,1,2,3,4,5,0,1,2,3,4,5,0,1,2,3,4,5,0,1,2,3,4,5,0,1,2,3,4,5,0,1,2,3,4,5,0,1,2,3,4,5],"trees":[{"base_weights":[-5.405089E-4,9.433959E-2,-4.504024E-3,4.0342292E-1,5.1037736E-2,-1.1510555E-2,2.7771905E-2,1.323529E-1,6.4485973E-1,1.11560196E-1,-2.658228E-1,-1.3142274E-2,1.9457886E-1,-4.1284405E-2,3.2205634E-2,8.602941E-2,-6.7039125E-2,3.145161E-1,9.9999994E-1,-3.3333334E-1,1.3402495E-1,-4.0909093E-2,-1.8750001E-1,-2.6397716E-2,2.5639466E-3,3.7051788E-1,-2.6174498E-1,4.000458E-3,7.146474E-2,4.026843E-2,-3.4615386E-2,9.5121944E-1,-2.7272728E-1,1.0553097E-1,3.7864074E-1,1.1842105E-2,-3.9013454E-1,3.3578786E-1,5.2320395E-2,-1.1418687E-1,-3.75E-1,-2.8730512E-1,-2.3034634E-2,2.0026699E-1,-2.5261038E-3,1.5501516E-1,1.5663716E0,-3.75E-1,-2.2351742E-8,1.3159516E-2,-2.5806454E-1,1.8725781E-1,4.3113366E-2,-7.5630266E-3,3.4615383E-2,1.03846155E-1,1.0714284E-2,-3.6734696E-2,1.0714284E-2,-2.8125001E-2,5.856164E-2,-1.6463416E-2,-3.8135596E-2,2.9870382E-2,-3.713592E-2,7.61917E-5,2.9129462E-2,5.583107E-4,-2.6813472E-2,-3.9335664E-2,-2.7108449E-3,-2.8591162E-2,-1.0254693E-2,6.3972357E-3,-2.1808345E-3,1.618703E-3,3.853591E-2,-1.05634E-3,2.2210656E-3,-4.75689E-4,3.87931E-2,1.3295454E-1,3.6627907E-2,-1.2572855E-9,-3.286517E-2,6.802326E-2,-3.5240963E-2,-6.2664235E-3,1.9665298E-3,3.6885226E-3,-2.9198475E-2,4.703302E-3,2.9895103E-2,-1.9370863E-2,4.352603E-3],"categories":[],"categories_nodes":[],"categories_segments":[],"categories_sizes":[],"default_left":[0,0,0,0,0,0,0,0,0,0,0,0,0,0,0,0,0,0,0,0,0,0,0,0,0,0,0,0,0,0,0,0,0,0,0,0,0,0,0,0,0,0,0,0,0,0,0,0,0,0,0,0,0,0,0,0,0,0,0,0,0,0,0,0,0,0,0,0,0,0,0,0,0,0,0,0,0,0,0,0,0,0,0,0,0,0,0,0,0,0,0,0,0,0,0],"id":0,"left_children":[1,3,5,7,9,11,13,15,17,19,21,23,25,-1,27,-1,29,31,33,35,37,-1,39,41,43,45,47,49,51,53,-1,55,57,-1,59,-1,61,63,65,67,69,71,73,75,77,79,81,83,85,87,89,91,93,-1,-1,-1,-1,-1,-1,-1,-1,-1,-1,-1,-1,-1,-1,-1,-1,-1,-1,-1,-1,-1,-1,-1,-1,-1,-1,-1,-1,-1,-1,-1,-1,-1,-1,-1,-1,-1,-1,-1,-1,-1,-1],"loss_changes":[3.479344E0,4.94483E0,2.0086896E0,2.8888211E0,6.292069E0,2.4566169E0,4.0795126E0,4.6629148E0,2.4750528E0,2.7920315E0,1.0512085E0,1.5076503E0,4.7044578E0,0E0,1.7417591E0,0E0,8.6053705E-1,5.4109325E0,2.2495909E0,4.382819E-1,4.307899E0,0E0,5.436851E-1,3.4392374E0,3.3366194E0,1.0538046E1,4.907719E-1,2.2033753E0,2.1509764E0,1.0306851E0,0E0,2.1961937E0,7.866419E-1,0E0,2.027214E0,0E0,1.3853347E-1,4.114274E0,3.240149E0,9.5302194E-1,5.663389E-1,6.5333796E-1,2.5414052E0,4.6514845E0,1.2014285E0,2.139879E0,5.3074837E-1,2.738763E-1,2.9831886E0,1.1220356E0,1.2692344E0,3.3720336E0,2.3967376E0,0E0,0E0,0E0,0E0,0E0,0E0,0E0,0E0,0E0,0E0,0E0,0E0,0E0,0E0,0E0,0E0,0E0,0E0,0E0,0E0,0E0,0E0,0E0,0E0,0E0,0E0,0E0,0E0,0E0,0E0,0E0,0E0,0E0,0E0,0E0,0E0,0E0,0E0,0E0,0E0,0E0,0E0],"parents":[2147483647,0,0,1,1,2,2,3,3,4,4,5,5,6,6,7,7,8,8,9,9,10,10,11,11,12,12,14,14,16,16,17,17,18,18,19,19,20,20,22,22,23,23,24,24,25,25,26,26,27,27,28,28,29,29,31,31,32,32,34,34,36,36,37,37,38,38,39,39,40,40,41,41,42,42,43,43,44,44,45,45,46,46,47,47,48,48,49,49,50,50,51,51,52,52],"right_children":[2,4,6,8,10,12,14,16,18,20,22,24,26,-1,28,-1,30,32,34,36,38,-1,40,42,44,46,48,50,52,54,-1,56,58,-1,60,-1,62,64,66,68,70,72,74,76,78,80,82,84,86,88,90,92,94,-1,-1,-1,-1,-1,-1,-1,-1,-1,-1,-1,-1,-1,-1,-1,-1,-1,-1,-1,-1,-1,-1,-1,-1,-1,-1,-1,-1,-1,-1,-1,-1,-1,-1,-1,-1,-1,-1,-1,-1,-1,-1],"split_conditions":[1.6E1,6.83419E3,7.4E1,3.86685E3,7.4E1,5.006882E4,9.5293E2,1.36272E3,8E0,8.82663E3,3E0,2.754022E4,2.77E2,-4.1284405E-2,2.39E2,8.602941E-2,3.67645E3,5.36113E3,1.3E1,2.5E1,2.039314E4,-4.0909093E-2,8.3E1,2.1E1,2.809913E4,2.59E2,5.6E1,2.32E2,2.69E2,3.28813E3,-3.4615386E-2,5.5E1,1E0,1.0553097E-1,4.78194E3,1.1842105E-2,4.7E1,6.9E1,6.7E1,4.022382E4,3.285415E4,5.1E1,2.1E1,2.59E2,2.98E2,2.04E2,2.75E2,2.2E1,6.2E1,6.6409E3,1.610819E4,2.59E2,2.75E2,-7.5630266E-3,3.4615383E-2,1.03846155E-1,1.0714284E-2,-3.6734696E-2,1.0714284E-2,-2.8125001E-2,5.856164E-2,-1.6463416E-2,-3.8135596E-2,2.9870382E-2,-3.713592E-2,7.61917E-5,2.9129462E-2,5.583107E-4,-2.6813472E-2,-3.9335664E-2,-2.7108449E-3,-2.8591162E-2,-1.0254693E-2,6.3972357E-3,-2.1808345E-3,1.618703E-3,3.853591E-2,-1.05634E-3,2.2210656E-3,-4.75689E-4,3.87931E-2,1.3295454E-1,3.6627907E-2,-1.2572855E-9,-3.286517E-2,6.802326E-2,-3.5240963E-2,-6.2664235E-3,1.9665298E-3,3.6885226E-3,-2.9198475E-2,4.703302E-3,2.9895103E-2,-1.9370863E-2,4.352603E-3],"split_indices":[3,2,0,2,0,2,2,2,3,2,3,2,3,0,3,0,2,2,3,0,2,0,0,3,2,3,0,3,3,2,0,0,1,0,2,0,0,0,0,2,2,0,0,3,3,3,3,0,0,2,2,3,3,0,0,0,0,0,0,0,0,0,0,0,0,0,0,0,0,0,0,0,0,0,0,0,0,0,0,0,0,0,0,0,0,0,0,0,0,0,0,0,0,0,0],"split_type":[0,0,0,0,0,0,0,0,0,0,0,0,0,0,0,0,0,0,0,0,0,0,0,0,0,0,0,0,0,0,0,0,0,0,0,0,0,0,0,0,0,0,0,0,0,0,0,0,0,0,0,0,0,0,0,0,0,0,0,0,0,0,0,0,0,0,0,0,0,0,0,0,0,0,0,0,0,0,0,0,0,0,0,0,0,0,0,0,0,0,0,0,0,0,0],"sum_hessian":[9.25E3,3.7000003E2,8.88E3,4.4444447E1,3.2555557E2,7.296667E3,1.5833334E3,2.1666668E1,2.2777779E1,2.7388892E2,5.1666668E1,7.2402783E3,5.6388893E1,1.1111112E1,1.5722223E3,2.777778E0,1.888889E1,1.2777779E1,1E1,1.2500001E1,2.6138892E2,1E1,4.1666668E1,3.9261113E3,3.3141667E3,4.0833336E1,1.5555556E1,9.155556E2,6.566667E2,1.5555556E1,3.3333335E0,5.8333335E0,6.9444447E0,5.277778E0,4.7222223E0,1.1111112E0,1.1388889E1,7.444445E1,1.8694446E2,3.1111113E1,1.0555556E1,4.8888893E1,3.8772224E3,8.222223E1,3.2319446E3,3.5555557E1,5.277778E0,1.0555556E1,5E0,8.855556E2,3.0000002E1,1.2805556E2,5.2861115E2,1.2222223E1,3.3333335E0,3.3333335E0,2.5E0,4.4444447E0,2.5E0,1.6666667E0,3.0555558E0,5.8333335E0,5.555556E0,6.972223E1,4.7222223E0,1.6305556E2,2.388889E1,2.138889E1,9.722222E0,6.9444447E0,3.6111112E0,2.9166668E1,1.9722223E1,2.0416667E2,3.6730557E3,5.3055557E1,2.9166668E1,2.3775E3,8.5444446E2,2.5277779E1,1.0277779E1,3.888889E0,1.388889E0,1.6666667E0,8.888889E0,1.388889E0,3.6111112E0,1.0472223E2,7.808334E2,9.166667E0,2.0833334E1,8.138889E1,4.6666668E1,2.4166668E1,5.0444446E2],"tree_param":{"num_deleted":"0","num_feature":"4","num_nodes":"95","size_leaf_vector":"1"}},{"base_weights":[-4.972462E-3,-2.618247E-2,8.991936E-3,-8.632944E-2,-9.707642E-3,9.3043834E-2,6.8915304E-4,-7.797005E-2,-3.5885167E-1,-3.520937E-2,5.1379234E-2,-6.382981E-2,1.2065596E-1,1.3017151E-1,-3.6627818E-3,-1.3641326E-1,-3.9241593E-2,-4.9049428E-1,-1.213873E-1,2.615615E-2,-8.181296E-2,8.571428E-1,4.2381804E-2,-2.1486856E-1,5.395683E-1,8.508688E-2,3.228346E-1,4.8870176E-2,2.7022055E-1,-1.03129834E-1,9.2219876E-4,-7.165607E-2,-2.7459955E-1,7.894736E-1,-6.2415387E-2,-1.4285715E-1,-4.1284405E-2,-2.7272728E-1,2.8125E-2,-1.7565487E-1,4.4129748E-2,-2.9702995E-2,-1.02081686E-1,1.2580644E0,2.9032254E-1,3.1662264E-1,2.7901137E-2,-1.321586E-1,-4.1197184E-2,7.91411E-1,1.578947E-1,1.1122241E-1,-1.8367349E-1,6.7924523E-1,1.8149462E-1,2.9323304E-1,-1.2555656E-1,3.5928115E-2,6.1643827E-1,-1.7958784E-1,-1.9169355E-2,1.8485772E-3,-3.75E-1,-2.3618788E-2,-2.2895487E-3,-1.2397422E-2,-2.7847758E-2,1.03846155E-1,3.2142855E-2,-1.3235296E-2,-8.0242706E-4,-2.616279E-2,1.1842105E-2,1.1842105E-2,-2.7439026E-2,-2.3130842E-2,1.4660054E-2,1.4144521E-2,2.0214217E-3,-3.1098847E-3,5.625E-2,-4.8026405E-3,-1.2313041E-2,2.1226414E-2,1.3189656E-1,4.006849E-2,-2.3684211E-2,1.05882354E-1,1.5254235E-2,-4.2142923E-4,9.244928E-3,-2.8521128E-2,-4.102386E-3,6.847826E-2,5.2325567E-3,-1.7307695E-2,4.006849E-2,1.4662584E-2,1.8856835E-3,-2.2613083E-3,-3.4615386E-2,2.6162788E-2,1.2115384E-1,3.301354E-2,-7.5358865E-3,8.358096E-3,8.339161E-2,-2.5193052E-2,3.9727106E-3,2.7759738E-2,-1.7857146E-2,7.8694575E-2,1.6897231E-2,-1.6257586E-2,8.333332E-3,3.0230305E-3,-2.2297299E-2,1.4758348E-3,-1.1528269E-3,-3.351064E-2,1.1842105E-2],"categories":[],"categories_nodes":[],"categories_segments":[],"categories_sizes":[],"default_left":[0,0,0,0,0,0,0,0,0,0,0,0,0,0,0,0,0,0,0,0,0,0,0,0,0,0,0,0,0,0,0,0,0,0,0,0,0,0,0,0,0,0,0,0,0,0,0,0,0,0,0,0,0,0,0,0,0,0,0,0,0,0,0,0,0,0,0,0,0,0,0,0,0,0,0,0,0,0,0,0,0,0,0,0,0,0,0,0,0,0,0,0,0,0,0,0,0,0,0,0,0,0,0,0,0,0,0,0,0,0,0,0,0,0,0,0,0,0,0,0,0],"id":1,"left_children":[1,3,5,7,9,11,13,15,17,19,21,23,25,27,29,31,33,35,37,39,41,43,45,47,49,51,53,55,57,59,61,63,65,67,69,71,-1,73,-1,75,77,79,81,83,85,87,89,91,-1,93,95,97,99,101,103,105,107,109,111,113,115,117,119,-1,-1,-1,-1,-1,-1,-1,-1,-1,-1,-1,-1,-1,-1,-1,-1,-1,-1,-1,-1,-1,-1,-1,-1,-1,-1,-1,-1,-1,-1,-1,-1,-1,-1,-1,-1,-1,-1,-1,-1,-1,-1,-1,-1,-1,-1,-1,-1,-1,-1,-1,-1,-1,-1,-1,-1,-1,-1],"loss_changes":[2.7402432E0,3.6387231E0,3.8933616E0,1.7708483E0,4.4950843E0,2.1802478E0,2.8622055E0,1.7315669E0,6.6639686E-1,5.8232136E0,6.1252003E0,7.0169945E0,3.0420203E0,1.8674109E0,2.241299E0,2.7136106E0,8.93988E0,2.2594404E-1,8.242906E-1,3.1973312E0,1.2191124E0,1.7557597E0,3.3331428E0,1.6223776E0,1.3595862E0,2.5795763E0,3.0755372E0,4.54306E0,4.8808756E0,1.3867252E0,1.6370248E0,2.0847719E0,9.6506834E-1,2.1272407E0,2.6599836E0,2.7190065E-1,0E0,3.7635654E-1,0E0,3.6131146E0,2.0005383E0,3.015739E0,1.9565706E0,2.0239487E0,9.325767E-1,4.9348936E0,2.5594244E0,9.487236E-1,0E0,7.31153E-1,1.204093E0,2.4084845E0,1.3795981E0,4.900934E0,3.4603677E0,6.4739866E0,2.3606887E0,3.4867275E0,3.8831205E0,1.2478108E0,1.7378712E0,1.4396434E0,5.127379E-1,0E0,0E0,0E0,0E0,0E0,0E0,0E0,0E0,0E0,0E0,0E0,0E0,0E0,0E0,0E0,0E0,0E0,0E0,0E0,0E0,0E0,0E0,0E0,0E0,0E0,0E0,0E0,0E0,0E0,0E0,0E0,0E0,0E0,0E0,0E0,0E0,0E0,0E0,0E0,0E0,0E0,0E0,0E0,0E0,0E0,0E0,0E0,0E0,0E0,0E0,0E0,0E0,0E0,0E0,0E0,0E0,0E0,0E0],"parents":[2147483647,0,0,1,1,2,2,3,3,4,4,5,5,6,6,7,7,8,8,9,9,10,10,11,11,12,12,13,13,14,14,15,15,16,16,17,17,18,18,19,19,20,20,21,21,22,22,23,23,24,24,25,25,26,26,27,27,28,28,29,29,30,30,31,31,32,32,33,33,34,34,35,35,37,37,39,39,40,40,41,41,42,42,43,43,44,44,45,45,46,46,47,47,49,49,50,50,51,51,52,52,53,53,54,54,55,55,56,56,57,57,58,58,59,59,60,60,61,61,62,62],"right_children":[2,4,6,8,10,12,14,16,18,20,22,24,26,28,30,32,34,36,38,40,42,44,46,48,50,52,54,56,58,60,62,64,66,68,70,72,-1,74,-1,76,78,80,82,84,86,88,90,92,-1,94,96,98,100,102,104,106,108,110,112,114,116,118,120,-1,-1,-1,-1,-1,-1,-1,-1,-1,-1,-1,-1,-1,-1,-1,-1,-1,-1,-1,-1,-1,-1,-1,-1,-1,-1,-1,-1,-1,-1,-1,-1,-1,-1,-1,-1,-1,-1,-1,-1,-1,-1,-1,-1,-1,-1,-1,-1,-1,-1,-1,-1,-1,-1,-1,-1,-1,-1],"split_conditions":[1.6E2,1.164035E4,5.36113E3,1.124989E4,6.6E1,2.8E1,1.68E2,4.6E1,1E0,3.9E1,1.218857E4,4.56581E3,3.64E2,1.65E2,2.1E1,1.08E2,4.7E1,3.1E1,1.44E2,1.3E1,4.4E1,1E0,6.7E1,3.53E2,4.96418E3,3.46E2,4.3E1,4.6E1,5.2E1,1E0,8.6E1,1.3E1,5.91804E3,3.5E1,4.9E1,2.5E1,-4.1284405E-2,2.5E1,2.8125E-2,3.763959E4,2E1,5.006882E4,3.553851E4,7E1,8.1E1,1.1E1,8.1E1,1.95E2,-4.1197184E-2,3.43E2,2.77E2,5.8E1,6.7E1,4.24874E3,3.81E2,4.2E1,6.3E1,3.4E1,6.6E1,4.587056E4,4.078244E4,5.3E1,4.55021E4,-2.3618788E-2,-2.2895487E-3,-1.2397422E-2,-2.7847758E-2,1.03846155E-1,3.2142855E-2,-1.3235296E-2,-8.0242706E-4,-2.616279E-2,1.1842105E-2,1.1842105E-2,-2.7439026E-2,-2.3130842E-2,1.4660054E-2,1.4144521E-2,2.0214217E-3,-3.1098847E-3,5.625E-2,-4.8026405E-3,-1.2313041E-2,2.1226414E-2,1.3189656E-1,4.006849E-2,-2.3684211E-2,1.05882354E-1,1.5254235E-2,-4.2142923E-4,9.244928E-3,-2.8521128E-2,-4.102386E-3,6.847826E-2,5.2325567E-3,-1.7307695E-2,4.006849E-2,1.4662584E-2,1.8856835E-3,-2.2613083E-3,-3.4615386E-2,2.6162788E-2,1.2115384E-1,3.301354E-2,-7.5358865E-3,8.358096E-3,8.339161E-2,-2.5193052E-2,3.9727106E-3,2.7759738E-2,-1.7857146E-2,7.8694575E-2,1.6897231E-2,-1.6257586E-2,8.333332E-3,3.0230305E-3,-2.2297299E-2,1.4758348E-3,-1.1528269E-3,-3.351064E-2,1.1842105E-2],"split_indices":[3,2,2,2,0,0,3,0,1,0,2,2,3,3,0,3,0,0,3,3,3,1,0,3,2,3,0,0,0,1,0,3,2,3,3,0,0,0,0,2,0,2,2,3,0,3,0,3,0,3,3,0,0,2,3,0,0,0,0,2,2,0,2,0,0,0,0,0,0,0,0,0,0,0,0,0,0,0,0,0,0,0,0,0,0,0,0,0,0,0,0,0,0,0,0,0,0,0,0,0,0,0,0,0,0,0,0,0,0,0,0,0,0,0,0,0,0,0,0,0,0],"split_type":[0,0,0,0,0,0,0,0,0,0,0,0,0,0,0,0,0,0,0,0,0,0,0,0,0,0,0,0,0,0,0,0,0,0,0,0,0,0,0,0,0,0,0,0,0,0,0,0,0,0,0,0,0,0,0,0,0,0,0,0,0,0,0,0,0,0,0,0,0,0,0,0,0,0,0,0,0,0,0,0,0,0,0,0,0,0,0,0,0,0,0,0,0,0,0,0,0,0,0,0,0,0,0,0,0,0,0,0,0,0,0,0,0,0,0,0,0,0,0,0,0],"sum_hessian":[9.25E3,3.6719446E3,5.5780557E3,7.8861115E2,2.8833335E3,5.0055557E2,5.0775E3,7.663889E2,2.2222223E1,2.0344446E3,8.488889E2,7.472223E1,4.2583334E2,1.6416667E2,4.9133335E3,3.0444446E2,4.6194446E2,1.3611112E1,8.611112E0,8.783334E2,1.1561112E3,8.333334E0,8.405556E2,6.0277782E1,1.4444445E1,3.6333334E2,6.2500004E1,1.0472223E2,5.9444447E1,2.1555557E2,4.697778E3,2.0833334E2,9.6111115E1,1.1666667E1,4.502778E2,2.5E0,1.1111112E1,6.9444447E0,1.6666667E0,7.1111115E1,8.072223E2,3.2444446E2,8.316667E2,4.166667E0,4.166667E0,4.1111115E1,7.9944446E2,4.9444447E1,1.0833334E1,8.055556E0,6.3888893E0,3.316667E2,3.1666668E1,1.6666668E1,4.5833336E1,4.3333336E1,6.1388893E1,3.6111115E1,2.3333334E1,1.1222223E2,1.03333336E2,4.6872227E3,1.0555556E1,2.9166668E1,1.7916667E2,4.638889E1,4.9722225E1,3.3333335E0,8.333334E0,1.3972223E2,3.1055557E2,1.388889E0,1.1111112E0,1.1111112E0,5.8333335E0,5.2500004E1,1.8611113E1,8.472223E1,7.2250006E2,3.2055557E2,3.888889E0,5.1694446E2,3.1472223E2,1.9444445E0,2.2222223E0,3.0555558E0,1.1111112E0,2.777778E0,3.8333336E1,5.922222E2,2.0722223E2,1.0833334E1,3.8611115E1,6.666667E0,1.388889E0,3.3333335E0,3.0555558E0,1.6694446E2,1.6472223E2,2.1111113E1,1.0555556E1,1.3333334E1,3.3333335E0,2.3611113E1,2.2222223E1,3.638889E1,6.9444447E0,2.7777779E1,3.3611115E1,1.6111113E1,2E1,1.0277779E1,1.3055556E1,9.972223E1,1.2500001E1,8.5833336E1,1.75E1,2.3027778E3,2.3844446E3,9.444445E0,1.1111112E0],"tree_param":{"num_deleted":"0","num_feature":"4","num_nodes":"121","size_leaf_vector":"1"}},{"base_weights":[-3.5672085E-3,8.757443E-3,-2.666416E-2,-1.1546131E-2,3.722378E-2,3.6161635E-2,-4.4269707E-2,2.1319793E-1,-1.4370595E-2,5.831357E-3,1.0122325E-1,1.7165723E-1,-1.2850744E-2,-6.2378082E-2,2.487242E-2,3.7386012E-1,-3.952703E-2,-3.6959246E-2,8.356519E-3,2.9250355E-2,-1.11949205E-1,1.7815478E-1,5.390774E-2,1.144578E-1,5.880893E-1,-8.756347E-2,6.352633E-2,-3.386983E-2,-1.274959E-1,3.1302357E-1,-2.1816863E-2,1.823204E-1,1.1052631E0,6.709262E-2,-5.665521E-2,2.0609675E-2,-9.536787E-2,1.5302255E-2,2.616887E-1,8.3132523E-1,-1.2728737E-1,-3.6585367E-1,1.8962719E-1,5.2941173E-1,3.187158E-2,1.0107814E-1,8.2894735E-2,2.020725E-1,8.6842096E-1,-1.5715128E-1,8.902074E-2,1.4937356E-1,-1.1154601E-1,-2.4418606E-1,-2.7892077E-2,3.3407543E-2,-1.416617E-1,7.643309E-2,5.1635844E-1,-4.6962082E-2,2.9848224E-1,-8.333335E-3,2.971698E-2,1.1842105E-2,9.358406E-2,3.2715523E-3,6.451049E-2,-1.7821785E-2,-3.2439202E-3,6.22247E-4,1.187309E-2,6.0296175E-3,-1.6907517E-2,1.2147632E-2,9.2705035E-5,3.1590253E-2,8.067727E-3,-2.3684211E-2,9.6428566E-2,-1.0683186E-2,2.4107141E-2,-3.713592E-2,1.1842105E-2,9.2939455E-3,2.040441E-2,-2.8125001E-2,4.642857E-2,-1.0260588E-2,4.418694E-3,1.538616E-2,1.9363147E-3,4.1504852E-2,-1.2500002E-2,1.5291261E-2,9.283216E-2,-3.7997607E-3,-1.9197954E-2,9.7641505E-2,2.9131738E-3,1.2640429E-3,1.6250603E-2,9.200742E-3,-1.7546892E-2,-8.555152E-4,-2.793454E-2,-3.4171466E-3,1.51191E-3,-1.8187068E-2,2.0962732E-2,-7.1490943E-3,-1.5180223E-2,1.869973E-2,-1.2362639E-2,-2.5280917E-3,5.0966848E-2,-8.314557E-3,3.3194337E-3,-3.5795454E-2,3.1405352E-2],"categories":[],"categories_nodes":[],"categories_segments":[],"categories_sizes":[],"default_left":[0,0,0,0,0,0,0,0,0,0,0,0,0,0,0,0,0,0,0,0,0,0,0,0,0,0,0,0,0,0,0,0,0,0,0,0,0,0,0,0,0,0,0,0,0,0,0,0,0,0,0,0,0,0,0,0,0,0,0,0,0,0,0,0,0,0,0,0,0,0,0,0,0,0,0,0,0,0,0,0,0,0,0,0,0,0,0,0,0,0,0,0,0,0,0,0,0,0,0,0,0,0,0,0,0,0,0,0,0,0,0,0,0,0,0,0,0,0,0],"id":2,"left_children":[1,3,5,7,9,11,13,15,17,19,21,23,25,27,29,31,-1,33,35,37,39,41,43,45,47,49,51,53,55,57,59,61,63,65,67,69,71,73,75,77,79,81,83,85,87,89,-1,91,93,95,97,99,101,103,105,107,109,111,113,115,117,-1,-1,-1,-1,-1,-1,-1,-1,-1,-1,-1,-1,-1,-1,-1,-1,-1,-1,-1,-1,-1,-1,-1,-1,-1,-1,-1,-1,-1,-1,-1,-1,-1,-1,-1,-1,-1,-1,-1,-1,-1,-1,-1,-1,-1,-1,-1,-1,-1,-1,-1,-1,-1,-1,-1,-1,-1,-1],"loss_changes":[2.6336408E0,3.4872808E0,3.5621421E0,2.2388344E0,5.0459304E0,4.685191E0,3.1503224E0,5.403358E0,1.786511E0,4.654539E0,2.9991035E0,4.396232E0,2.9658847E0,3.6958885E0,7.038563E0,4.9196553E0,0E0,3.5803494E0,2.2072778E0,4.558855E0,4.1552777E0,2.0311565E0,5.360814E0,2.0888848E0,2.2472787E0,3.2416668E0,3.880907E0,1.7377896E0,1.3872719E0,3.4696774E0,3.6441305E0,1.937489E0,8.0065155E-1,5.1414046E0,3.5502377E0,2.6312091E0,4.213063E0,2.7411134E0,1.9118705E0,2.8094933E0,1.9245672E0,5.409102E-1,1.637248E0,2.0696778E0,2.2504497E0,1.2861828E0,0E0,1.4812701E0,2.8565607E0,1.9735923E0,4.507147E0,1.5387924E0,2.470581E0,1.1370523E0,1.1475174E0,3.4551432E0,1.5504141E0,1.49647E0,3.5289469E0,2.4459267E0,3.2732062E0,0E0,0E0,0E0,0E0,0E0,0E0,0E0,0E0,0E0,0E0,0E0,0E0,0E0,0E0,0E0,0E0,0E0,0E0,0E0,0E0,0E0,0E0,0E0,0E0,0E0,0E0,0E0,0E0,0E0,0E0,0E0,0E0,0E0,0E0,0E0,0E0,0E0,0E0,0E0,0E0,0E0,0E0,0E0,0E0,0E0,0E0,0E0,0E0,0E0,0E0,0E0,0E0,0E0,0E0,0E0,0E0,0E0,0E0],"parents":[2147483647,0,0,1,1,2,2,3,3,4,4,5,5,6,6,7,7,8,8,9,9,10,10,11,11,12,12,13,13,14,14,15,15,17,17,18,18,19,19,20,20,21,21,22,22,23,23,24,24,25,25,26,26,27,27,28,28,29,29,30,30,31,31,32,32,33,33,34,34,35,35,36,36,37,37,38,38,39,39,40,40,41,41,42,42,43,43,44,44,45,45,47,47,48,48,49,49,50,50,51,51,52,52,53,53,54,54,55,55,56,56,57,57,58,58,59,59,60,60],"right_children":[2,4,6,8,10,12,14,16,18,20,22,24,26,28,30,32,-1,34,36,38,40,42,44,46,48,50,52,54,56,58,60,62,64,66,68,70,72,74,76,78,80,82,84,86,88,90,-1,92,94,96,98,100,102,104,106,108,110,112,114,116,118,-1,-1,-1,-1,-1,-1,-1,-1,-1,-1,-1,-1,-1,-1,-1,-1,-1,-1,-1,-1,-1,-1,-1,-1,-1,-1,-1,-1,-1,-1,-1,-1,-1,-1,-1,-1,-1,-1,-1,-1,-1,-1,-1,-1,-1,-1,-1,-1,-1,-1,-1,-1,-1,-1,-1,-1,-1,-1],"split_conditions":[3.301848E4,2.35E2,8.6E1,9.5293E2,6.4E1,3.7E1,3.34E2,7.2E1,1E0,3.72E2,2.95E2,3.5E1,4.188191E4,6.5E1,3.43E2,6.4E1,-3.952703E-2,3.6E1,2.11E2,3.64E2,1.36272E3,9.5293E2,2.12944E3,8.4E1,1E0,7.1E1,4.7418E4,9.2E1,1.08E2,3.38E2,4.898948E4,4E1,1.9E1,3.5E1,5E1,1.95E2,1.447466E4,2.2E1,1.49029E4,3.4E1,3.208168E4,8E1,2.68E2,6.6E1,6.46202E3,2.5E1,8.2894735E-2,4.229853E4,4.040905E4,5.4E1,3E0,4.361028E4,2.7E1,3.982863E4,5.3E1,4.002676E4,4.28945E4,5.5E1,3.708276E4,3.78E2,3.49E2,-8.333335E-3,2.971698E-2,1.1842105E-2,9.358406E-2,3.2715523E-3,6.451049E-2,-1.7821785E-2,-3.2439202E-3,6.22247E-4,1.187309E-2,6.0296175E-3,-1.6907517E-2,1.2147632E-2,9.2705035E-5,3.1590253E-2,8.067727E-3,-2.3684211E-2,9.6428566E-2,-1.0683186E-2,2.4107141E-2,-3.713592E-2,1.1842105E-2,9.2939455E-3,2.040441E-2,-2.8125001E-2,4.642857E-2,-1.0260588E-2,4.418694E-3,1.538616E-2,1.9363147E-3,4.1504852E-2,-1.2500002E-2,1.5291261E-2,9.283216E-2,-3.7997607E-3,-1.9197954E-2,9.7641505E-2,2.9131738E-3,1.2640429E-3,1.6250603E-2,9.200742E-3,-1.7546892E-2,-8.555152E-4,-2.793454E-2,-3.4171466E-3,1.51191E-3,-1.8187068E-2,2.0962732E-2,-7.1490943E-3,-1.5180223E-2,1.869973E-2,-1.2362639E-2,-2.5280917E-3,5.0966848E-2,-8.314557E-3,3.3194337E-3,-3.5795454E-2,3.1405352E-2],"split_indices":[2,3,3,2,0,0,3,0,1,3,3,0,2,0,3,0,0,3,3,3,2,2,2,3,1,0,2,3,3,3,2,0,3,3,3,3,2,0,2,0,2,0,3,0,2,0,0,2,2,0,3,2,3,2,0,2,2,0,2,3,3,0,0,0,0,0,0,0,0,0,0,0,0,0,0,0,0,0,0,0,0,0,0,0,0,0,0,0,0,0,0,0,0,0,0,0,0,0,0,0,0,0,0,0,0,0,0,0,0,0,0,0,0,0,0,0,0,0,0],"split_type":[0,0,0,0,0,0,0,0,0,0,0,0,0,0,0,0,0,0,0,0,0,0,0,0,0,0,0,0,0,0,0,0,0,0,0,0,0,0,0,0,0,0,0,0,0,0,0,0,0,0,0,0,0,0,0,0,0,0,0,0,0,0,0,0,0,0,0,0,0,0,0,0,0,0,0,0,0,0,0,0,0,0,0,0,0,0,0,0,0,0,0,0,0,0,0,0,0,0,0,0,0,0,0,0,0,0,0,0,0,0,0,0,0,0,0,0,0,0,0],"sum_hessian":[9.25E3,6.031945E3,3.2180557E3,3.5211113E3,2.5108335E3,7.041667E2,2.513889E3,4.277778E1,3.4783335E3,1.6852778E3,8.255556E2,1.863889E2,5.1777783E2,1.9922223E3,5.216667E2,3.5555557E1,7.2222223E0,1.7441667E3,1.7341667E3,1.4063889E3,2.7888892E2,3.1333334E2,5.122222E2,1.6500002E2,2.138889E1,2.616667E2,2.561111E2,1.3866667E3,6.055556E2,7.194445E1,4.4972223E2,2.9166668E1,6.3888893E0,2.7722223E2,1.4669445E3,1.5516667E3,1.8250002E2,1.3277778E3,7.8611115E1,3.6111112E0,2.752778E2,5.8333335E0,3.075E2,2.1666668E1,4.9055557E2,1.638889E2,1.1111112E0,9.722222E0,1.1666667E1,1.8777779E2,7.388889E1,1.7194446E2,8.416667E1,3.7222225E1,1.3494445E3,4.8888893E1,5.566667E2,3.388889E1,3.8055557E1,4.177778E2,3.1944447E1,1.2500001E1,1.6666668E1,1.1111112E0,5.277778E0,2.702778E2,6.9444447E0,1.0000001E2,1.3669445E3,1.4252778E3,1.2638889E2,7.777778E1,1.0472223E2,1.1527779E2,1.2125E3,3.777778E1,4.0833336E1,1.1111112E0,2.5E0,2.6694446E2,8.333334E0,4.7222223E0,1.1111112E0,1.7250002E2,1.35E2,1.6666667E0,2E1,6.722223E1,4.2333334E2,6.805556E1,9.5833336E1,4.7222223E0,5E0,4.7222223E0,6.9444447E0,9.1111115E1,9.666667E1,1.9444445E0,7.194445E1,5.8333336E1,1.13611115E2,2.888889E1,5.527778E1,1.3611112E1,2.3611113E1,9.866667E2,3.627778E2,2.3055557E1,2.5833334E1,3.1722223E2,2.3944446E2,1.9722223E1,1.4166667E1,8.888889E0,2.9166668E1,2.4555557E2,1.7222223E2,3.888889E0,2.8055557E1],"tree_param":{"num_deleted":"0","num_feature":"4","num_nodes":"119","size_leaf_vector":"1"}},{"base_weights":[6.5938546E-3,1.9638015E-2,-1.3654571E-2,3.8917277E-2,-1.1248678E-2,-1.4861305E-2,8.602941E-2,3.2724682E-2,1.7078407E-1,-2.3008661E-2,5.549843E-2,-1.2828441E-1,-3.7375262E-3,3.6273632E-2,-2.2789541E-1,1.1912476E-1,5.335276E-1,-5.3501923E-2,2.84602E-2,2.1368477E-1,-1.3994625E-2,-2.514112E-1,-4.748448E-2,-1.0256931E-1,5.2319225E-3,-2.5510471E-3,5.808299E-2,-2.6221082E-1,3.6627907E-2,6.1224484E-1,9.798992E-2,9.4818646E-1,-2.3948294E-8,-3.9679715E-3,-1.3328315E-1,1.4304373E-1,-3.944318E-2,4.1846752E-1,-5.7471287E-2,-2.238806E-1,2.2362357E-2,-4.978166E-1,-1.8840581E-1,-3.0585518E-2,-3.8414635E-2,1.1664072E-1,-1.3478464E-1,9.561861E-3,-1.5122618E-1,7.483969E-4,-1.833653E-2,8.4881E-3,2.7905807E-3,-2.027029E-3,-3.1587474E-2,6.9230765E-2,-2.3684211E-2,-1.55940605E-2,1.0592009E-2,-3.1034485E-2,1.0147058E-1,1.9067796E-2,-3.3088237E-2,-2.0062167E-3,1.0435518E-2,-8.186876E-3,-2.8485065E-2,-1.4847717E-2,1.5949514E-2,-3.9873417E-2,-2.185615E-3,2.159781E-2,6.654929E-2,-1.6791046E-2,2.1106922E-3,9.50704E-3,-2.9779412E-2,-1.9370863E-2,4.790368E-3,-2.4710985E-2,-4.2326733E-2,-5.984044E-3,-2.5996018E-2,-4.55985E-3,2.2269621E-2,-1.08078625E-2,5.209359E-2,2.1902654E-2,-1.0922332E-2,-1.8410514E-3,2.1379532E-3,-1.9368464E-2,3.0555554E-2],"categories":[],"categories_nodes":[],"categories_segments":[],"categories_sizes":[],"default_left":[0,0,0,0,0,0,0,0,0,0,0,0,0,0,0,0,0,0,0,0,0,0,0,0,0,0,0,0,0,0,0,0,0,0,0,0,0,0,0,0,0,0,0,0,0,0,0,0,0,0,0,0,0,0,0,0,0,0,0,0,0,0,0,0,0,0,0,0,0,0,0,0,0,0,0,0,0,0,0,0,0,0,0,0,0,0,0,0,0,0,0,0,0],"id":3,"left_children":[1,3,5,7,9,11,-1,13,15,17,19,21,23,25,27,29,31,33,35,37,39,41,43,45,47,49,51,53,-1,55,57,59,61,63,65,67,69,71,73,75,77,79,81,83,-1,85,87,89,91,-1,-1,-1,-1,-1,-1,-1,-1,-1,-1,-1,-1,-1,-1,-1,-1,-1,-1,-1,-1,-1,-1,-1,-1,-1,-1,-1,-1,-1,-1,-1,-1,-1,-1,-1,-1,-1,-1,-1,-1,-1,-1,-1,-1],"loss_changes":[2.4436767E0,3.3510633E0,5.0947204E0,2.823605E0,1.6992872E0,4.5698647E0,0E0,3.0701876E0,2.8441243E0,2.8891425E0,3.5683386E0,3.2064462E0,2.9257782E0,2.7663112E0,1.2245533E0,1.3689806E0,4.2156982E0,4.566746E0,5.3366566E0,5.5244164E0,1.7316918E0,1.8925295E0,1.52791E0,1.955004E0,2.0516098E0,3.5673418E0,2.4015079E0,1.6044261E0,0E0,1.8620174E0,1.7840958E0,6.4706507E0,1.1590228E0,2.3317082E0,2.591167E0,6.0997915E0,2.1698909E0,3.2047834E0,6.260426E-1,2.0845654E0,2.2738466E0,9.9061966E-2,1.7509196E0,1.9052497E0,0E0,5.483267E0,1.1530895E0,1.9041405E0,4.981008E0,0E0,0E0,0E0,0E0,0E0,0E0,0E0,0E0,0E0,0E0,0E0,0E0,0E0,0E0,0E0,0E0,0E0,0E0,0E0,0E0,0E0,0E0,0E0,0E0,0E0,0E0,0E0,0E0,0E0,0E0,0E0,0E0,0E0,0E0,0E0,0E0,0E0,0E0,0E0,0E0,0E0,0E0,0E0,0E0],"parents":[2147483647,0,0,1,1,2,2,3,3,4,4,5,5,7,7,8,8,9,9,10,10,11,11,12,12,13,13,14,14,15,15,16,16,17,17,18,18,19,19,20,20,21,21,22,22,23,23,24,24,25,25,26,26,27,27,29,29,30,30,31,31,32,32,33,33,34,34,35,35,36,36,37,37,38,38,39,39,40,40,41,41,42,42,43,43,45,45,46,46,47,47,48,48],"right_children":[2,4,6,8,10,12,-1,14,16,18,20,22,24,26,28,30,32,34,36,38,40,42,44,46,48,50,52,54,-1,56,58,60,62,64,66,68,70,72,74,76,78,80,82,84,-1,86,88,90,92,-1,-1,-1,-1,-1,-1,-1,-1,-1,-1,-1,-1,-1,-1,-1,-1,-1,-1,-1,-1,-1,-1,-1,-1,-1,-1,-1,-1,-1,-1,-1,-1,-1,-1,-1,-1,-1,-1,-1,-1,-1,-1,-1,-1],"split_conditions":[2.44E2,3.130572E4,8.7E1,2.998352E4,2.08E2,2.58E2,8.602941E-2,2.958306E4,2.15E2,6.1E1,2.18E2,2.017419E4,4.96418E3,8.9E1,8.4E1,7E0,2.26E2,4.306916E4,7E1,5.5E1,3.436421E4,3.3E1,4.946555E4,2.7E1,8.4E1,2.830009E4,3.7E1,9.4E1,3.6627907E-2,6.3E1,2.7E1,3.5E1,6.3E1,4.15201E4,5.7E1,3.436421E4,5E0,2.16E2,6.3E1,4.1E1,2.6E1,2.5E2,1.242867E4,4.682349E4,-3.8414635E-2,3.56E2,2.61E2,4.2E1,4.270163E4,7.483969E-4,-1.833653E-2,8.4881E-3,2.7905807E-3,-2.027029E-3,-3.1587474E-2,6.9230765E-2,-2.3684211E-2,-1.55940605E-2,1.0592009E-2,-3.1034485E-2,1.0147058E-1,1.9067796E-2,-3.3088237E-2,-2.0062167E-3,1.0435518E-2,-8.186876E-3,-2.8485065E-2,-1.4847717E-2,1.5949514E-2,-3.9873417E-2,-2.185615E-3,2.159781E-2,6.654929E-2,-1.6791046E-2,2.1106922E-3,9.50704E-3,-2.9779412E-2,-1.9370863E-2,4.790368E-3,-2.4710985E-2,-4.2326733E-2,-5.984044E-3,-2.5996018E-2,-4.55985E-3,2.2269621E-2,-1.08078625E-2,5.209359E-2,2.1902654E-2,-1.0922332E-2,-1.8410514E-3,2.1379532E-3,-1.9368464E-2,3.0555554E-2],"split_indices":[3,2,0,2,3,3,0,2,3,0,3,2,2,3,0,3,3,2,0,0,2,0,2,0,0,2,0,3,0,0,3,0,0,2,0,2,3,3,0,0,0,3,2,2,0,3,3,0,2,0,0,0,0,0,0,0,0,0,0,0,0,0,0,0,0,0,0,0,0,0,0,0,0,0,0,0,0,0,0,0,0,0,0,0,0,0,0,0,0,0,0,0,0],"split_type":[0,0,0,0,0,0,0,0,0,0,0,0,0,0,0,0,0,0,0,0,0,0,0,0,0,0,0,0,0,0,0,0,0,0,0,0,0,0,0,0,0,0,0,0,0,0,0,0,0,0,0,0,0,0,0,0,0,0,0,0,0,0,0,0,0,0,0,0,0,0,0,0,0,0,0,0,0,0,0,0,0,0,0,0,0,0,0,0,0,0,0,0,0],"sum_hessian":[9.25E3,5.6258335E3,3.6241667E3,3.4636113E3,2.1622224E3,3.6213892E3,2.777778E0,3.3094446E3,1.5416667E2,1.8388889E3,3.2333334E2,3.2250003E2,3.2988892E3,3.2658335E3,4.3611115E1,1.3611111E2,1.8055557E1,1.1547223E3,6.841667E2,9.805556E1,2.2527779E2,1.2694445E2,1.9555557E2,2.736111E2,3.0252778E3,1.175E3,2.0908335E3,4.2222225E1,1.388889E0,4.4444447E0,1.3166667E2,9.722222E0,8.333334E0,7.130556E2,4.416667E2,2.5416667E2,4.3000003E2,5.5555557E1,4.2500004E1,3.25E1,1.9277779E2,2.4444447E1,1.0250001E2,1.8972223E2,5.8333335E0,3.4722225E1,2.388889E2,2.9447224E3,8.055556E1,1.1180557E3,5.6944447E1,5.733334E2,1.5175001E3,1.75E1,2.4722223E1,3.3333335E0,1.1111112E0,1.5833334E1,1.15833336E2,2.2222223E0,7.5000005E0,5.555556E0,2.777778E0,6.158334E2,9.722223E1,4.0361115E2,3.8055557E1,4.277778E1,2.113889E2,7.777778E0,4.2222223E2,4.4722225E1,1.0833334E1,1.3888889E1,2.8611113E1,1.0833334E1,2.1666668E1,2.4166668E1,1.6861111E2,8.611112E0,1.5833334E1,6.1666668E1,4.0833336E1,1.7444446E2,1.5277779E1,2.4444447E1,1.0277779E1,5.277778E0,2.3361113E2,1.0513889E3,1.8933334E3,6.805556E1,1.2500001E1],"tree_param":{"num_deleted":"0","num_feature":"4","num_nodes":"93","size_leaf_vector":"1"}},{"base_weights":[4.648119E-3,4.218013E-3,6.666666E-1,9.0408875E-3,-3.8766176E-2,4.1095868E-2,9.7641505E-2,-6.845174E-3,2.674368E-2,-1.8513855E-1,-2.3451382E-2,-2.616279E-2,2.8125E-2,2.7435582E-2,-3.0411933E-2,1.7603641E-2,1.61047E-1,6.9230765E-1,-2.277487E-1,-3.8321193E-2,1.903323E-1,5.2379377E-2,-5.4125786E-2,-6.57454E-2,-5.3683207E-3,1.646223E-1,1.0393404E-2,1.3598898E-1,8.3544296E-1,9.7641505E-2,-2.616279E-2,-1.690141E-1,-4.9253732E-1,1.3530901E-2,-7.81832E-2,2.882562E-1,-3.2142857E-1,1.0722139E-2,3.0796586E-3,-1.9476084E-2,-2.0215653E-3,-1.1141307E-2,-2.78855E-3,2.0809358E-3,-7.1167904E-3,6.1284024E-3,2.9981317E-2,-6.365348E-5,7.92372E-3,-7.6271202E-3,1.3580748E-2,2.1575341E-2,8.082524E-2,-2.1283785E-2,6.6176453E-3,-4.1284405E-2,-1.3235295E-2,-9.223071E-3,6.2136604E-3,-6.3412194E-3,2.4609374E-2,-2.1283785E-2,2.9978959E-2,1.0714284E-2,-3.8414635E-2],"categories":[],"categories_nodes":[],"categories_segments":[],"categories_sizes":[],"default_left":[0,0,0,0,0,0,0,0,0,0,0,0,0,0,0,0,0,0,0,0,0,0,0,0,0,0,0,0,0,0,0,0,0,0,0,0,0,0,0,0,0,0,0,0,0,0,0,0,0,0,0,0,0,0,0,0,0,0,0,0,0,0,0,0,0],"id":4,"left_children":[1,3,5,7,9,11,-1,13,15,17,19,-1,-1,21,23,25,27,29,31,33,35,37,39,41,43,45,47,49,51,-1,-1,53,55,57,59,61,63,-1,-1,-1,-1,-1,-1,-1,-1,-1,-1,-1,-1,-1,-1,-1,-1,-1,-1,-1,-1,-1,-1,-1,-1,-1,-1,-1,-1],"loss_changes":[2.6312997E0,1.9171143E0,2.3307483E0,2.3383255E0,2.0870051E0,6.5884835E-1,0E0,3.5415306E0,4.824321E0,3.456135E0,2.6957796E0,0E0,0E0,3.6363626E0,2.2982643E0,3.902355E0,4.118655E0,3.20434E0,1.236968E0,1.6371465E0,2.8572545E0,1.3967569E0,2.331985E0,2.542838E0,4.5123854E0,3.322569E0,3.7608466E0,2.618979E0,8.5466576E-1,0E0,0E0,2.121274E0,1.7543125E-1,3.2736146E0,1.1857309E0,3.0995948E0,8.998258E-1,0E0,0E0,0E0,0E0,0E0,0E0,0E0,0E0,0E0,0E0,0E0,0E0,0E0,0E0,0E0,0E0,0E0,0E0,0E0,0E0,0E0,0E0,0E0,0E0,0E0,0E0,0E0,0E0],"parents":[2147483647,0,0,1,1,2,2,3,3,4,4,5,5,7,7,8,8,9,9,10,10,13,13,14,14,15,15,16,16,17,17,18,18,19,19,20,20,21,21,22,22,23,23,24,24,25,25,26,26,27,27,28,28,31,31,32,32,33,33,34,34,35,35,36,36],"right_children":[2,4,6,8,10,12,-1,14,16,18,20,-1,-1,22,24,26,28,30,32,34,36,38,40,42,44,46,48,50,52,-1,-1,54,56,58,60,62,64,-1,-1,-1,-1,-1,-1,-1,-1,-1,-1,-1,-1,-1,-1,-1,-1,-1,-1,-1,-1,-1,-1,-1,-1,-1,-1,-1,-1],"split_conditions":[8.8E1,3.59E2,2.058152E4,5.4E1,5.73262E3,9.6E1,9.7641505E-2,1.47E2,3.35E2,3.61E2,3.97E2,-2.616279E-2,2.8125E-2,4.6E1,2.36E2,3.28813E3,4.838606E4,2.12944E3,3.94E2,2.499179E4,7.5E1,6.29314E3,1.4E1,1.280813E4,3.26E2,7.7E1,4.508808E4,8.82663E3,7.1E1,9.7641505E-2,-2.616279E-2,3.85E2,4.96418E3,3.72E2,5.006882E4,1.242867E4,2.039314E4,1.0722139E-2,3.0796586E-3,-1.9476084E-2,-2.0215653E-3,-1.1141307E-2,-2.78855E-3,2.0809358E-3,-7.1167904E-3,6.1284024E-3,2.9981317E-2,-6.365348E-5,7.92372E-3,-7.6271202E-3,1.3580748E-2,2.1575341E-2,8.082524E-2,-2.1283785E-2,6.6176453E-3,-4.1284405E-2,-1.3235295E-2,-9.223071E-3,6.2136604E-3,-6.3412194E-3,2.4609374E-2,-2.1283785E-2,2.9978959E-2,1.0714284E-2,-3.8414635E-2],"split_indices":[0,3,2,0,2,3,0,3,3,3,3,0,0,0,3,2,2,2,3,2,0,2,3,2,3,0,2,2,0,0,0,3,2,3,2,2,2,0,0,0,0,0,0,0,0,0,0,0,0,0,0,0,0,0,0,0,0,0,0,0,0,0,0,0,0],"split_type":[0,0,0,0,0,0,0,0,0,0,0,0,0,0,0,0,0,0,0,0,0,0,0,0,0,0,0,0,0,0,0,0,0,0,0,0,0,0,0,0,0,0,0,0,0,0,0,0,0,0,0,0,0,0,0,0,0,0,0,0,0,0,0,0,0],"sum_hessian":[9.25E3,9.245E3,5E0,8.313056E3,9.319445E2,3.0555558E0,1.9444445E0,4.381667E3,3.9313892E3,8.722223E1,8.447223E2,1.388889E0,1.6666667E0,1.7850001E3,2.5966667E3,3.6819446E3,2.4944446E2,3.3333335E0,8.388889E1,7.905556E2,5.4166668E1,1.3672223E3,4.177778E2,1.0763889E3,1.5202778E3,1.7111111E2,3.5108335E3,2.4166667E2,7.777778E0,1.9444445E0,1.388889E0,7E1,1.3888889E1,3.4388892E2,4.466667E2,4.5833336E1,8.333334E0,1.5055556E2,1.2166667E3,4.777778E1,3.7000003E2,2.75E2,8.013889E2,1.1102778E3,4.1000003E2,1.2750001E2,4.3611115E1,3.1411113E3,3.6972223E2,3.8333336E1,2.0333334E2,3.0555558E0,4.7222223E0,4.8333336E1,2.1666668E1,1.1111112E1,2.777778E0,1.1555556E2,2.2833334E2,4.4055557E2,6.1111116E0,7.2222223E0,3.8611115E1,2.5E0,5.8333335E0],"tree_param":{"num_deleted":"0","num_feature":"4","num_nodes":"65","size_leaf_vector":"1"}},{"base_weights":[-2.1619552E-3,1.2542227E-2,-3.733732E-2,-2.0593373E-2,2.6006341E-2,-4.3278027E-2,5.1573113E-2,-7.349965E-3,-1.0561997E-1,4.2696893E-2,-1.9159153E-2,-3.6883872E-2,-1.8061675E-1,2.7014214E-1,-4.862263E-3,3.3368614E-2,-3.285764E-2,-1.5177068E-1,5.517906E-2,3.6138337E-2,1.7810163E-1,-9.732161E-3,-2.2469637E-1,-5.4077454E-2,-3.9688055E-3,-2.9177058E-1,-2.0979047E-2,-4.2253543E-2,4.1095886E-1,1.1235928E-2,-3.5240963E-2,-1.1890427E-2,8.064222E-2,-8.553549E-2,1.5209097E-2,-1.0117304E-1,-3.1132075E-1,2.4223599E-1,-1.05633825E-1,3.309222E-1,3.3299774E-2,3.454258E-1,4.030707E-2,6.473163E-3,-1.0791369E-1,-3.0150777E-2,-3.4539473E-1,-4.4251796E-2,-1.6856894E-1,7.1288515E-3,-1.9565219E-1,-3.216169E-1,1.8072286E-1,2.1865885E-1,-1.7448407E-1,-2.6086956E-1,2.9032254E-1,7.7528083E-1,1.510791E-1,-4.4039954E-2,1.4206125E-1,-1.5534523E-2,1.7824477E-3,9.703689E-3,9.6235896E-4,-2.9286E-3,-1.2117504E-2,-3.076381E-3,9.726223E-3,-1.0871443E-2,1.0514016E-2,-5.653268E-3,-3.75E-2,-6.71642E-3,4.5386262E-2,-3.8671877E-2,9.825308E-4,7.3469386E-2,1.3794923E-2,4.229323E-2,2.4047215E-3,2.0521171E-2,1.3189656E-1,-6.08933E-4,5.4611646E-2,-1.0354304E-3,9.441141E-3,6.9738966E-3,-1.1784411E-2,-1.5934845E-2,7.4999996E-2,-3.775168E-2,-1.3719514E-2,-7.898536E-3,-1.2388942E-3,2.148702E-3,-1.9433783E-2,1.730769E-2,4.8478923E-5,3.1869668E-3,-2.692698E-2,-3.4832638E-2,-1.5929205E-2,8.2894735E-2,-3.214286E-2,-8.458648E-3,2.960526E-2,5.0319466E-3,-3.592437E-2,6.6176453E-3,-3.5795454E-2,-1.2572855E-9,3.2142855E-2,6.993243E-2,-1.2572855E-9,5.357143E-2,-9.656671E-4,-1.2500002E-2,1.730769E-2,2.5938334E-2,-5.578514E-3],"categories":[],"categories_nodes":[],"categories_segments":[],"categories_sizes":[],"default_left":[0,0,0,0,0,0,0,0,0,0,0,0,0,0,0,0,0,0,0,0,0,0,0,0,0,0,0,0,0,0,0,0,0,0,0,0,0,0,0,0,0,0,0,0,0,0,0,0,0,0,0,0,0,0,0,0,0,0,0,0,0,0,0,0,0,0,0,0,0,0,0,0,0,0,0,0,0,0,0,0,0,0,0,0,0,0,0,0,0,0,0,0,0,0,0,0,0,0,0,0,0,0,0,0,0,0,0,0,0,0,0,0,0,0,0,0,0,0,0,0,0],"id":5,"left_children":[1,3,5,7,9,11,13,15,17,19,21,23,25,27,29,31,33,35,37,39,41,43,45,47,49,51,53,55,57,59,-1,61,63,65,67,69,71,73,75,77,79,81,83,85,87,89,91,93,95,97,99,101,103,105,107,109,111,113,115,117,119,-1,-1,-1,-1,-1,-1,-1,-1,-1,-1,-1,-1,-1,-1,-1,-1,-1,-1,-1,-1,-1,-1,-1,-1,-1,-1,-1,-1,-1,-1,-1,-1,-1,-1,-1,-1,-1,-1,-1,-1,-1,-1,-1,-1,-1,-1,-1,-1,-1,-1,-1,-1,-1,-1,-1,-1,-1,-1,-1,-1],"loss_changes":[4.7853174E0,2.9114354E0,1.4428132E0,2.1226258E0,3.4985387E0,2.2389045E0,2.1140292E0,1.6968435E0,1.8937185E0,3.0025077E0,2.4249773E0,1.383259E0,2.0078619E0,1.5643649E0,1.0316846E0,1.3474543E0,2.5443258E0,1.5642371E0,1.7519128E0,2.694189E0,3.589275E0,1.9080302E0,1.278451E0,1.798904E0,1.7880371E0,1.0006189E0,1.7916006E0,9.3609613E-1,2.186749E0,9.7165966E-1,0E0,2.2492106E0,1.0161326E0,1.6878958E0,3.3909607E0,1.6217506E0,2.0595899E0,3.2852118E0,1.5428789E0,2.74912E0,2.0841002E0,6.6676464E0,2.8983183E0,2.495591E0,1.6942335E0,4.3651686E0,7.7478075E-1,2.5048418E0,2.267422E0,1.1522338E0,1.8049673E0,8.8760567E-1,3.0712018E0,1.1565905E0,2.210387E0,6.2130886E-1,2.0737332E-1,1.2048292E0,1.4353422E0,3.2267566E0,1.7851086E0,0E0,0E0,0E0,0E0,0E0,0E0,0E0,0E0,0E0,0E0,0E0,0E0,0E0,0E0,0E0,0E0,0E0,0E0,0E0,0E0,0E0,0E0,0E0,0E0,0E0,0E0,0E0,0E0,0E0,0E0,0E0,0E0,0E0,0E0,0E0,0E0,0E0,0E0,0E0,0E0,0E0,0E0,0E0,0E0,0E0,0E0,0E0,0E0,0E0,0E0,0E0,0E0,0E0,0E0,0E0,0E0,0E0,0E0,0E0,0E0],"parents":[2147483647,0,0,1,1,2,2,3,3,4,4,5,5,6,6,7,7,8,8,9,9,10,10,11,11,12,12,13,13,14,14,15,15,16,16,17,17,18,18,19,19,20,20,21,21,22,22,23,23,24,24,25,25,26,26,27,27,28,28,29,29,31,31,32,32,33,33,34,34,35,35,36,36,37,37,38,38,39,39,40,40,41,41,42,42,43,43,44,44,45,45,46,46,47,47,48,48,49,49,50,50,51,51,52,52,53,53,54,54,55,55,56,56,57,57,58,58,59,59,60,60],"right_children":[2,4,6,8,10,12,14,16,18,20,22,24,26,28,30,32,34,36,38,40,42,44,46,48,50,52,54,56,58,60,-1,62,64,66,68,70,72,74,76,78,80,82,84,86,88,90,92,94,96,98,100,102,104,106,108,110,112,114,116,118,120,-1,-1,-1,-1,-1,-1,-1,-1,-1,-1,-1,-1,-1,-1,-1,-1,-1,-1,-1,-1,-1,-1,-1,-1,-1,-1,-1,-1,-1,-1,-1,-1,-1,-1,-1,-1,-1,-1,-1,-1,-1,-1,-1,-1,-1,-1,-1,-1,-1,-1,-1,-1,-1,-1,-1,-1,-1,-1,-1,-1],"split_conditions":[6.6E1,1.511131E4,4.704662E4,1.317535E4,4.078244E4,4.508808E4,4.760677E4,3.7E1,5.6E1,3.96397E4,6.4E1,2.978654E4,7.8E1,7.2E1,3.88E2,1E0,5.1E1,4.6E1,1.59E2,1.531639E4,1.98E2,4.878022E4,1.42E2,2.754022E4,8.5E1,3.86E2,4.587056E4,4.7418E4,7.8E1,2.78E2,-3.5240963E-2,6.2E1,2.36E2,4.6E1,2.71E2,3.32E2,1.89E2,8.6E1,2.16E2,4E1,1.6E1,1.95E2,3.89E2,4.760677E4,2.7E1,1.33E2,2.53E2,1.26E2,1.28E2,3.017074E4,3.608822E4,4.587056E4,3.88E2,1E0,1E0,4.725253E4,6.9E1,4.7418E4,9.1E1,4.946555E4,7.6E1,-1.5534523E-2,1.7824477E-3,9.703689E-3,9.6235896E-4,-2.9286E-3,-1.2117504E-2,-3.076381E-3,9.726223E-3,-1.0871443E-2,1.0514016E-2,-5.653268E-3,-3.75E-2,-6.71642E-3,4.5386262E-2,-3.8671877E-2,9.825308E-4,7.3469386E-2,1.3794923E-2,4.229323E-2,2.4047215E-3,2.0521171E-2,1.3189656E-1,-6.08933E-4,5.4611646E-2,-1.0354304E-3,9.441141E-3,6.9738966E-3,-1.1784411E-2,-1.5934845E-2,7.4999996E-2,-3.775168E-2,-1.3719514E-2,-7.898536E-3,-1.2388942E-3,2.148702E-3,-1.9433783E-2,1.730769E-2,4.8478923E-5,3.1869668E-3,-2.692698E-2,-3.4832638E-2,-1.5929205E-2,8.2894735E-2,-3.214286E-2,-8.458648E-3,2.960526E-2,5.0319466E-3,-3.592437E-2,6.6176453E-3,-3.5795454E-2,-1.2572855E-9,3.2142855E-2,6.993243E-2,-1.2572855E-9,5.357143E-2,-9.656671E-4,-1.2500002E-2,1.730769E-2,2.5938334E-2,-5.578514E-3],"split_indices":[0,2,2,2,2,2,2,0,0,2,0,2,0,0,3,1,0,0,3,2,3,2,3,2,0,3,2,2,0,3,0,3,3,0,3,3,3,3,3,3,0,3,3,2,0,3,3,3,3,2,2,2,3,1,1,2,0,2,3,2,0,0,0,0,0,0,0,0,0,0,0,0,0,0,0,0,0,0,0,0,0,0,0,0,0,0,0,0,0,0,0,0,0,0,0,0,0,0,0,0,0,0,0,0,0,0,0,0,0,0,0,0,0,0,0,0,0,0,0,0,0],"split_type":[0,0,0,0,0,0,0,0,0,0,0,0,0,0,0,0,0,0,0,0,0,0,0,0,0,0,0,0,0,0,0,0,0,0,0,0,0,0,0,0,0,0,0,0,0,0,0,0,0,0,0,0,0,0,0,0,0,0,0,0,0,0,0,0,0,0,0,0,0,0,0,0,0,0,0,0,0,0,0,0,0,0,0,0,0,0,0,0,0,0,0,0,0,0,0,0,0,0,0,0,0,0,0,0,0,0,0,0,0,0,0,0,0,0,0,0,0,0,0,0,0],"sum_hessian":[9.25E3,6.5236113E3,2.726389E3,1.8847223E3,4.638889E3,2.5561113E3,1.7027779E2,1.6316667E3,2.5305557E2,3.3872224E3,1.2516667E3,2.4436113E3,1.1250001E2,3.4166668E1,1.3611111E2,6.283334E2,1.0033334E3,1.9666667E2,5.6388893E1,3.2319446E3,1.5527779E2,1.1977778E3,5.3888893E1,1.6047223E3,8.388889E2,6.5833336E1,4.6666668E1,1.0833334E1,2.3333334E1,1.325E2,3.6111112E0,3.2138892E2,3.0694446E2,4.7833334E2,5.25E2,1.5055556E2,4.6111115E1,2.5833334E1,3.0555557E1,2.9722223E1,3.2022224E3,6.944445E1,8.5833336E1,1.0288889E3,1.688889E2,2.1111113E1,3.277778E1,1.4791667E3,1.25555565E2,7.938889E2,4.5000004E1,6.2222225E1,3.6111112E0,1.8055557E1,2.8611113E1,6.666667E0,4.166667E0,8.888889E0,1.4444445E1,9.3611115E1,3.888889E1,4.8888893E1,2.725E2,1.7805556E2,1.288889E2,2.977778E2,1.8055556E2,3.5250003E2,1.7250002E2,1.2777779E2,2.2777779E1,2.1111113E1,2.5000002E1,1.3888889E1,1.1944445E1,6.1111116E0,2.4444447E1,4.4444447E0,2.5277779E1,6.3888893E0,3.1958335E3,6.722223E1,2.2222223E0,8.1111115E1,4.7222223E0,8.8027783E2,1.4861111E2,3.3055557E1,1.3583334E2,1.8611113E1,2.5E0,1.5555556E1,1.7222223E1,4.6111115E2,1.0180556E3,3.9722225E1,8.5833336E1,2.138889E1,7.7250006E2,1.8611113E1,2.638889E1,2.5555557E1,3.6666668E1,1.1111112E0,2.5E0,6.3888893E0,1.1666667E1,1.638889E1,1.2222223E1,2.777778E0,3.888889E0,1.6666667E0,2.5E0,7.2222223E0,1.6666667E0,2.5E0,1.1944445E1,6.5E1,2.8611113E1,1.9722223E1,1.9166668E1],"tree_param":{"num_deleted":"0","num_feature":"4","num_nodes":"121","size_leaf_vector":"1"}},{"base_weights":[-5.167523E-4,9.005007E-2,-4.3199807E-3,3.829556E-1,4.8423376E-2,-1.1041001E-2,2.6573546E-2,1.271172E-1,6.0582787E-1,1.0630825E-1,-2.6010463E-1,-1.262247E-2,1.8700363E-1,-4.0916435E-2,3.084455E-2,8.019747E-2,-6.6103674E-2,9.062657E-1,2.78959E-1,-3.2818294E-1,1.2783091E-1,-4.0521357E-2,-1.8299387E-1,-2.5314149E-2,2.3898191E-3,3.5174593E-1,-2.5431603E-1,3.6244977E-3,6.8620846E-2,-1.792341E-1,2.9036424E-1,1.1374867E0,-1.0161768E-1,-2.6809186E-1,9.1892225E-1,1.15138E-2,-3.849841E-1,3.1639096E-1,5.0285876E-2,-3.7316898E-1,-1.0853576E-1,-2.8080237E-1,-2.2062661E-2,1.9125555E-1,-2.518999E-3,1.4723329E-1,1.430089E0,-3.678504E-1,4.0249964E-3,1.24458885E-2,-2.5209877E-1,1.1245421E-1,-1.5205847E-3,2.089636E-2,-1.9855287E-2,5.563556E-2,-1.0521E-2,1.1852788E-1,1.5880506E-2,-2.3598867E-2,1.1956537E-2,-3.638337E-2,1.0321168E-2,2.4869127E-2,8.069567E-2,-1.6145807E-2,-3.7797876E-2,2.8103495E-2,-3.6769196E-2,7.33533E-5,2.7551044E-2,5.3429333E-3,-3.3078864E-2,2.1418948E-3,-2.3676192E-2,-2.805739E-2,-9.989143E-3,6.172925E-3,-2.0936357E-3,1.5799885E-3,3.6208402E-2,-1.0263266E-3,2.1349355E-3,-1.1495009E-2,2.4914218E-2,1.20074734E-1,3.528171E-2,1.0440505E-4,-3.2356266E-2,6.4950146E-2,-3.4814227E-2,-6.045999E-3,1.8703319E-3,3.6263221E-3,-2.8718276E-2,5.824331E-3,2.0859243E-2,6.327252E-3,-9.218546E-3],"categories":[],"categories_nodes":[],"categories_segments":[],"categories_sizes":[],"default_left":[0,0,0,0,0,0,0,0,0,0,0,0,0,0,0,0,0,0,0,0,0,0,0,0,0,0,0,0,0,0,0,0,0,0,0,0,0,0,0,0,0,0,0,0,0,0,0,0,0,0,0,0,0,0,0,0,0,0,0,0,0,0,0,0,0,0,0,0,0,0,0,0,0,0,0,0,0,0,0,0,0,0,0,0,0,0,0,0,0,0,0,0,0,0,0,0,0,0,0],"id":6,"left_children":[1,3,5,7,9,11,13,15,17,19,21,23,25,-1,27,-1,29,31,33,35,37,-1,39,41,43,45,47,49,51,53,55,57,59,61,63,-1,65,67,69,71,73,75,77,79,81,83,85,87,89,91,93,95,97,-1,-1,-1,-1,-1,-1,-1,-1,-1,-1,-1,-1,-1,-1,-1,-1,-1,-1,-1,-1,-1,-1,-1,-1,-1,-1,-1,-1,-1,-1,-1,-1,-1,-1,-1,-1,-1,-1,-1,-1,-1,-1,-1,-1,-1,-1],"loss_changes":[3.1867254E0,4.5275784E0,1.8438414E0,2.5601707E0,5.878395E0,2.2865336E0,3.8941593E0,4.221114E0,2.1485004E0,2.6281874E0,1.0255444E0,1.3787721E0,4.29461E0,0E0,1.6202574E0,0E0,8.529599E-1,2.9812384E0,4.852074E0,4.2391562E-1,3.8476038E0,0E0,5.58813E-1,3.251233E0,3.074697E0,9.1703005E0,4.79643E-1,2.0717554E0,2.0291848E0,6.8815184E-1,1.1084322E0,3.799819E0,2.2881341E-1,7.5941056E-1,2.2320652E-1,0E0,1.3810253E-1,3.797225E0,2.9453087E0,3.7829733E-1,9.128287E-1,6.276281E-1,2.3679996E0,4.158103E0,1.1188341E0,2.100148E0,3.4024525E-1,2.6667643E-1,2.8099582E0,1.0335779E0,1.2221549E0,2.3197289E0,2.6667695E0,0E0,0E0,0E0,0E0,0E0,0E0,0E0,0E0,0E0,0E0,0E0,0E0,0E0,0E0,0E0,0E0,0E0,0E0,0E0,0E0,0E0,0E0,0E0,0E0,0E0,0E0,0E0,0E0,0E0,0E0,0E0,0E0,0E0,0E0,0E0,0E0,0E0,0E0,0E0,0E0,0E0,0E0,0E0,0E0,0E0,0E0],"parents":[2147483647,0,0,1,1,2,2,3,3,4,4,5,5,6,6,7,7,8,8,9,9,10,10,11,11,12,12,14,14,16,16,17,17,18,18,19,19,20,20,22,22,23,23,24,24,25,25,26,26,27,27,28,28,29,29,30,30,31,31,32,32,33,33,34,34,36,36,37,37,38,38,39,39,40,40,41,41,42,42,43,43,44,44,45,45,46,46,47,47,48,48,49,49,50,50,51,51,52,52],"right_children":[2,4,6,8,10,12,14,16,18,20,22,24,26,-1,28,-1,30,32,34,36,38,-1,40,42,44,46,48,50,52,54,56,58,60,62,64,-1,66,68,70,72,74,76,78,80,82,84,86,88,90,92,94,96,98,-1,-1,-1,-1,-1,-1,-1,-1,-1,-1,-1,-1,-1,-1,-1,-1,-1,-1,-1,-1,-1,-1,-1,-1,-1,-1,-1,-1,-1,-1,-1,-1,-1,-1,-1,-1,-1,-1,-1,-1,-1,-1,-1,-1,-1,-1],"split_conditions":[1.6E1,6.83419E3,7.4E1,3.86685E3,7.4E1,5.006882E4,9.5293E2,1.36272E3,5.36113E3,8.82663E3,3E0,2.754022E4,2.77E2,-4.0916435E-2,2.39E2,8.019747E-2,1.3E1,1.3E1,8E0,2.5E1,2.039314E4,-4.0521357E-2,1.784269E4,2.1E1,2.809913E4,2.59E2,5.6E1,2.32E2,3.38E2,2E0,4.3E1,5.5E1,3.2E1,1E0,5.73262E3,1.15138E-2,4.7E1,6.9E1,6.7E1,5E0,4.022382E4,5.1E1,2.1E1,2.59E2,2.98E2,3.9E1,2.75E2,2.2E1,6.2E1,6.6409E3,1.610819E4,3.22E2,2.882251E4,2.089636E-2,-1.9855287E-2,5.563556E-2,-1.0521E-2,1.1852788E-1,1.5880506E-2,-2.3598867E-2,1.1956537E-2,-3.638337E-2,1.0321168E-2,2.4869127E-2,8.069567E-2,-1.6145807E-2,-3.7797876E-2,2.8103495E-2,-3.6769196E-2,7.33533E-5,2.7551044E-2,5.3429333E-3,-3.3078864E-2,2.1418948E-3,-2.3676192E-2,-2.805739E-2,-9.989143E-3,6.172925E-3,-2.0936357E-3,1.5799885E-3,3.6208402E-2,-1.0263266E-3,2.1349355E-3,-1.1495009E-2,2.4914218E-2,1.20074734E-1,3.528171E-2,1.0440505E-4,-3.2356266E-2,6.4950146E-2,-3.4814227E-2,-6.045999E-3,1.8703319E-3,3.6263221E-3,-2.8718276E-2,5.824331E-3,2.0859243E-2,6.327252E-3,-9.218546E-3],"split_indices":[3,2,0,2,0,2,2,2,2,2,3,2,3,0,3,0,3,3,3,0,2,0,2,3,2,3,0,3,3,3,0,0,0,1,2,0,0,0,0,3,2,0,0,3,3,0,3,0,0,2,2,3,2,0,0,0,0,0,0,0,0,0,0,0,0,0,0,0,0,0,0,0,0,0,0,0,0,0,0,0,0,0,0,0,0,0,0,0,0,0,0,0,0,0,0,0,0,0,0],"split_type":[0,0,0,0,0,0,0,0,0,0,0,0,0,0,0,0,0,0,0,0,0,0,0,0,0,0,0,0,0,0,0,0,0,0,0,0,0,0,0,0,0,0,0,0,0,0,0,0,0,0,0,0,0,0,0,0,0,0,0,0,0,0,0,0,0,0,0,0,0,0,0,0,0,0,0,0,0,0,0,0,0,0,0,0,0,0,0,0,0,0,0,0,0,0,0,0,0,0,0],"sum_hessian":[9.249604E3,3.7185635E2,8.877747E3,4.5250717E1,3.2660565E2,7.2919863E3,1.5857607E3,2.1798382E1,2.3452335E1,2.7556128E2,5.1044357E1,7.235147E3,5.6839382E1,1.0811138E1,1.5749496E3,2.9380083E0,1.8860374E1,1.1296614E1,1.2155722E1,1.2333286E1,2.63228E2,9.720075E0,4.132428E1,3.9202258E3,3.314921E3,4.1536858E1,1.5302522E1,9.160078E2,6.589418E2,1.4694158E1,4.166217E0,9.084033E0,2.2125804E0,6.8668823E0,5.288839E0,1.1213133E0,1.1211972E1,7.580906E1,1.8741895E2,1.0498369E1,3.0825912E1,4.819135E1,3.8720347E3,8.301398E1,3.2319067E3,3.587041E1,5.666449E0,1.0336151E1,4.966371E0,8.863826E2,2.962519E1,4.0514926E2,2.5379248E2,1.9568784E0,1.2737279E1,1.6812325E0,2.4849844E0,5.666161E0,3.4178717E0,1.1052215E0,1.1073589E0,4.346271E0,2.5206115E0,1.7720894E0,3.5167496E0,5.778952E0,5.4330206E0,7.1196846E1,4.6122146E0,1.6306323E2,2.4355711E1,1.3845634E0,9.113806E0,1.9068253E1,1.1757659E1,2.858837E1,1.9602982E1,2.0490285E2,3.6671318E3,5.30917E1,2.9922276E1,2.3762021E3,8.5570465E2,1.3731712E1,2.2138697E1,4.2425985E0,1.4238508E0,1.6617197E0,8.674431E0,1.44907E0,3.5173013E0,1.0425716E2,7.821255E2,9.177217E0,2.0447973E1,3.3603793E2,6.9111336E1,1.4881395E2,1.04978546E2],"tree_param":{"num_deleted":"0","num_feature":"4","num_nodes":"99","size_leaf_vector":"1"}},{"base_weights":[-4.73534E-3,-2.5185362E-2,8.705013E-3,-8.344653E-2,-9.287489E-3,1.4739351E-1,4.086141E-3,-7.530291E-2,-3.523582E-1,-3.3803213E-2,4.916041E-2,3.739864E-1,1.00705236E-1,8.647801E-2,-3.382351E-3,-1.3164082E-1,-3.8202707E-2,-4.849269E-1,-1.16745636E-1,2.5673086E-2,-7.9178736E-2,8.0698395E-1,4.0450726E-2,-1.9281161E-1,5.792938E-1,-1.1876435E-1,1.4565992E-1,5.3230952E-2,3.926693E-1,-1.2067394E-1,2.1868855E-4,-6.859419E-2,-2.6757142E-1,7.373968E-1,-6.0700063E-2,-1.4038017E-1,-4.0916257E-2,-2.6644707E-1,2.7097711E-2,-1.6938972E-1,4.282753E-2,-2.8563723E-2,-9.89307E-2,1.1718622E0,2.766959E-1,3.0160096E-1,2.6491554E-2,2.803298E-1,-3.7194706E-2,7.3922116E-1,-9.8805815E-2,6.0574263E-1,-2.320404E-1,1.1193765E-1,4.5769358E-1,-2.1007022E-1,9.696923E-2,8.2066816E-1,2.306548E-1,-2.3264524E-1,2.4915785E-2,1.0863229E-3,-3.6741385E-1,-2.3014475E-2,-2.1724831E-3,-1.1967288E-2,-2.7304133E-2,8.9711845E-2,2.3935482E-2,-1.2873285E-2,-8.117159E-4,-2.5968574E-2,1.1805317E-2,-2.70844E-2,1.249237E-2,-2.255061E-2,1.4140378E-2,6.908858E-3,-4.4066977E-4,-2.9984538E-3,5.2730534E-2,-4.6440153E-3,-1.1971238E-2,2.047548E-2,1.2076979E-1,-2.4003733E-2,3.894672E-2,6.1222363E-2,6.6188783E-3,-4.2746565E-4,8.811042E-3,5.577602E-2,-2.638677E-2,2.4604177E-2,6.882672E-2,3.663393E-2,-3.318799E-2,6.7623846E-2,4.5826365E-3,-3.1441756E-2,4.5610056E-3,6.182448E-2,6.783381E-3,1.3771682E-3,7.277709E-2,-9.39891E-3,-4.0764846E-2,1.2059639E-2,-2.483052E-3,-8.978601E-3,7.991177E-2,2.3953944E-2,1.1367834E-3,-7.315025E-3,-2.5781E-2,7.2220825E-2,-3.7547778E-3,-4.1528065E-3,4.5062572E-4,-3.2994766E-2,1.1731389E-2],"categories":[],"categories_nodes":[],"categories_segments":[],"categories_sizes":[],"default_left":[0,0,0,0,0,0,0,0,0,0,0,0,0,0,0,0,0,0,0,0,0,0,0,0,0,0,0,0,0,0,0,0,0,0,0,0,0,0,0,0,0,0,0,0,0,0,0,0,0,0,0,0,0,0,0,0,0,0,0,0,0,0,0,0,0,0,0,0,0,0,0,0,0,0,0,0,0,0,0,0,0,0,0,0,0,0,0,0,0,0,0,0,0,0,0,0,0,0,0,0,0,0,0,0,0,0,0,0,0,0,0,0,0,0,0,0,0,0,0,0,0],"id":7,"left_children":[1,3,5,7,9,11,13,15,17,19,21,23,25,27,29,31,33,35,37,39,41,43,45,47,49,51,53,55,57,59,61,63,65,67,69,71,-1,73,-1,75,77,79,81,83,85,87,89,91,-1,93,95,97,99,101,103,105,107,109,111,113,115,117,119,-1,-1,-1,-1,-1,-1,-1,-1,-1,-1,-1,-1,-1,-1,-1,-1,-1,-1,-1,-1,-1,-1,-1,-1,-1,-1,-1,-1,-1,-1,-1,-1,-1,-1,-1,-1,-1,-1,-1,-1,-1,-1,-1,-1,-1,-1,-1,-1,-1,-1,-1,-1,-1,-1,-1,-1,-1,-1],"loss_changes":[2.5420609E0,3.3964715E0,3.5745587E0,1.6951051E0,4.1322036E0,1.8650446E0,3.3245227E0,1.5925336E0,6.5667844E-1,5.4843826E0,5.592434E0,3.644412E0,1.50211E0,4.5502014E0,2.0925443E0,2.5789738E0,8.11065E0,2.2203946E-1,7.789685E-1,2.9514794E0,1.1494365E0,1.5391932E0,3.0673108E0,1.4043543E0,2.51694E0,2.2855568E0,1.2678492E0,4.6983685E0,2.8495817E0,2.4115171E0,1.5338941E0,1.9586959E0,9.3904066E-1,2.1331348E0,2.4890766E0,2.6818317E-1,0E0,3.8157612E-1,0E0,3.4083292E0,1.9439437E0,2.7419424E0,1.851223E0,1.6867414E0,9.240017E-1,4.6177845E0,2.349444E0,1.4578846E0,0E0,1.0456734E0,1.26223E0,5.590806E-1,1.3041388E0,1.6778826E0,2.6630418E0,1.5761399E0,2.9030185E0,2.8080845E0,6.296319E-1,1.2201166E0,4.623986E0,1.3334239E0,4.989158E-1,0E0,0E0,0E0,0E0,0E0,0E0,0E0,0E0,0E0,0E0,0E0,0E0,0E0,0E0,0E0,0E0,0E0,0E0,0E0,0E0,0E0,0E0,0E0,0E0,0E0,0E0,0E0,0E0,0E0,0E0,0E0,0E0,0E0,0E0,0E0,0E0,0E0,0E0,0E0,0E0,0E0,0E0,0E0,0E0,0E0,0E0,0E0,0E0,0E0,0E0,0E0,0E0,0E0,0E0,0E0,0E0,0E0,0E0],"parents":[2147483647,0,0,1,1,2,2,3,3,4,4,5,5,6,6,7,7,8,8,9,9,10,10,11,11,12,12,13,13,14,14,15,15,16,16,17,17,18,18,19,19,20,20,21,21,22,22,23,23,24,24,25,25,26,26,27,27,28,28,29,29,30,30,31,31,32,32,33,33,34,34,35,35,37,37,39,39,40,40,41,41,42,42,43,43,44,44,45,45,46,46,47,47,49,49,50,50,51,51,52,52,53,53,54,54,55,55,56,56,57,57,58,58,59,59,60,60,61,61,62,62],"right_children":[2,4,6,8,10,12,14,16,18,20,22,24,26,28,30,32,34,36,38,40,42,44,46,48,50,52,54,56,58,60,62,64,66,68,70,72,-1,74,-1,76,78,80,82,84,86,88,90,92,-1,94,96,98,100,102,104,106,108,110,112,114,116,118,120,-1,-1,-1,-1,-1,-1,-1,-1,-1,-1,-1,-1,-1,-1,-1,-1,-1,-1,-1,-1,-1,-1,-1,-1,-1,-1,-1,-1,-1,-1,-1,-1,-1,-1,-1,-1,-1,-1,-1,-1,-1,-1,-1,-1,-1,-1,-1,-1,-1,-1,-1,-1,-1,-1,-1,-1,-1,-1],"split_conditions":[1.6E2,1.164035E4,1.68E2,1.124989E4,6.6E1,9.40374E3,4.96418E3,4.6E1,1E0,3.9E1,1.218857E4,1.62E2,1.588716E4,4.56581E3,2E1,1.08E2,4.7E1,3.1E1,1.44E2,1.3E1,4.4E1,1E0,6.7E1,4.5E1,7E1,2.5E1,8E1,2.8E1,3.3E1,3.017074E4,8.6E1,1.3E1,5.91804E3,3.86685E3,4.9E1,7.8E1,-4.0916257E-2,7.2E1,2.7097711E-2,3.763959E4,3.034471E4,5.006882E4,3.553851E4,7E1,2.5E1,5.5E1,8.1E1,4.78194E3,-3.7194706E-2,4.78194E3,3.28813E3,1.65E2,6.2E1,1.648448E4,1E0,3.53E2,6.7E1,1.97E2,6.9E1,1.9E1,3.089943E4,1.87E2,4.55021E4,-2.3014475E-2,-2.1724831E-3,-1.1967288E-2,-2.7304133E-2,8.9711845E-2,2.3935482E-2,-1.2873285E-2,-8.117159E-4,-2.5968574E-2,1.1805317E-2,-2.70844E-2,1.249237E-2,-2.255061E-2,1.4140378E-2,6.908858E-3,-4.4066977E-4,-2.9984538E-3,5.2730534E-2,-4.6440153E-3,-1.1971238E-2,2.047548E-2,1.2076979E-1,-2.4003733E-2,3.894672E-2,6.1222363E-2,6.6188783E-3,-4.2746565E-4,8.811042E-3,5.577602E-2,-2.638677E-2,2.4604177E-2,6.882672E-2,3.663393E-2,-3.318799E-2,6.7623846E-2,4.5826365E-3,-3.1441756E-2,4.5610056E-3,6.182448E-2,6.783381E-3,1.3771682E-3,7.277709E-2,-9.39891E-3,-4.0764846E-2,1.2059639E-2,-2.483052E-3,-8.978601E-3,7.991177E-2,2.3953944E-2,1.1367834E-3,-7.315025E-3,-2.5781E-2,7.2220825E-2,-3.7547778E-3,-4.1528065E-3,4.5062572E-4,-3.2994766E-2,1.1731389E-2],"split_indices":[3,2,3,2,0,2,2,0,1,0,2,3,2,2,0,3,0,0,3,3,3,1,0,0,0,0,0,0,0,2,0,3,2,2,3,3,0,0,0,2,2,2,2,3,3,3,0,2,0,2,2,3,0,2,1,3,0,3,0,0,2,3,2,0,0,0,0,0,0,0,0,0,0,0,0,0,0,0,0,0,0,0,0,0,0,0,0,0,0,0,0,0,0,0,0,0,0,0,0,0,0,0,0,0,0,0,0,0,0,0,0,0,0,0,0,0,0,0,0,0,0],"split_type":[0,0,0,0,0,0,0,0,0,0,0,0,0,0,0,0,0,0,0,0,0,0,0,0,0,0,0,0,0,0,0,0,0,0,0,0,0,0,0,0,0,0,0,0,0,0,0,0,0,0,0,0,0,0,0,0,0,0,0,0,0,0,0,0,0,0,0,0,0,0,0,0,0,0,0,0,0,0,0,0,0,0,0,0,0,0,0,0,0,0,0,0,0,0,0,0,0,0,0,0,0,0,0,0,0,0,0,0,0,0,0,0,0,0,0,0,0,0,0,0,0],"sum_hessian":[9.246919E3,3.666826E3,5.580093E3,7.851663E2,2.8816597E3,1.7885309E2,5.4012397E3,7.6332996E2,2.1836401E1,2.0304271E3,8.512325E2,2.9358198E1,1.4949489E2,4.4802963E2,4.95321E3,3.020732E2,4.6125674E2,1.3296755E1,8.539646E0,8.7887256E2,1.1515546E3,8.630663E0,8.426018E2,7.8227024E0,2.1535496E1,2.5136448E1,1.2435844E2,4.052052E2,4.282441E1,1.465733E2,4.8066367E3,2.0738814E2,9.468507E1,1.2106499E1,4.4915024E2,2.4856107E0,1.0811144E1,6.84025E0,1.6993966E0,7.0325745E1,8.085468E2,3.2392734E2,8.276272E2,4.3960133E0,4.2346497E0,4.170844E1,8.008934E2,3.0840063E0,4.738696E0,1.735277E1,4.1827254E0,2.8108606E0,2.2325586E1,1.1345573E2,1.0902716E1,5.718043E1,3.4802478E2,1.0643015E1,3.2181393E1,8.2514465E1,6.405884E1,4.796314E3,1.0322538E1,2.8612047E1,1.787761E2,4.592671E1,4.8758358E1,4.8867025E0,7.2197967E0,1.3854282E2,3.1060742E2,1.3733947E0,1.112216E0,5.7492003E0,1.0910494E0,5.1570187E1,1.8755562E1,4.0140683E2,4.0713998E2,3.1988162E2,4.045722E0,5.153504E2,3.1227682E2,1.9731631E0,2.4228501E0,1.1316557E0,3.102994E0,1.1394211E1,3.0314226E1,5.922854E2,2.0860796E2,1.6778016E0,1.4062046E0,6.111326E0,1.1241444E1,1.3887335E0,2.7939918E0,1.3965855E0,1.4142752E0,1.3356817E1,8.96877E0,2.2287269E0,1.11227E2,6.4291034E0,4.473613E0,4.6689724E1,1.04907055E1,2.3330875E2,1.14716034E2,2.3040342E0,8.338981E0,2.2453917E1,9.727479E0,3.8081295E1,4.4433174E1,3.8648596E0,6.0193977E1,3.837969E2,4.412517E3,9.208005E0,1.1145334E0],"tree_param":{"num_deleted":"0","num_feature":"4","num_nodes":"121","size_leaf_vector":"1"}},{"base_weights":[-3.3975684E-3,8.416415E-3,-2.5580881E-2,-1.1130117E-2,3.5754975E-2,3.4913167E-2,-4.2599797E-2,2.0405778E-1,-1.3861797E-2,5.6747426E-3,9.677182E-2,1.6501337E-1,-1.2510008E-2,-6.0145874E-2,2.4114687E-2,3.560033E-1,-3.9176986E-2,-3.5734586E-2,8.099819E-3,2.8048053E-2,-1.07764155E-1,1.6971365E-1,5.1627547E-2,1.1034436E-1,5.55172E-1,-8.458956E-2,6.0580093E-2,-3.2657646E-2,-1.23256005E-1,2.737229E-1,-2.5957081E-2,1.7464747E-1,1.0240113E0,6.3752145E-2,-5.4696675E-2,1.9877749E-2,-9.218493E-2,1.4667562E-2,2.4826375E-1,7.820848E-1,-1.22805245E-1,-3.601416E-1,1.8061988E-1,4.942933E-1,3.0573089E-2,9.73161E-2,7.898016E-2,3.5705948E-1,1.1021188E0,-1.5252721E-1,8.5818E-2,1.421981E-1,-1.0810823E-1,-2.3865974E-1,-2.6858097E-2,3.244736E-2,-1.3708426E-1,4.0724698E-1,2.2188988E-2,-8.3420105E-2,1.602729E-1,7.639547E-3,8.240856E-2,1.1804473E-2,8.594903E-2,3.0896368E-3,5.999482E-2,-1.7392348E-2,-3.126745E-3,6.027499E-4,1.1349502E-2,5.7780133E-3,-1.645344E-2,1.15820505E-2,8.653021E-5,2.9758522E-2,7.694327E-3,-2.3396745E-2,8.949836E-2,-5.161216E-4,-1.3661317E-2,-3.676208E-2,1.1507881E-2,1.1778857E-2,2.92447E-2,5.6506157E-2,1.1562681E-2,-1.0029799E-2,4.25351E-3,1.4739899E-2,1.8743206E-3,3.1712644E-3,6.006668E-2,1.0191278E-1,2.5509292E-2,-3.6991804E-3,-1.8704578E-2,9.033151E-2,2.8012188E-3,8.151915E-3,3.0170087E-2,8.821994E-3,-1.7109012E-2,-8.2759256E-4,-2.7461203E-2,-3.291504E-3,1.4465145E-3,-1.7729284E-2,1.9976052E-2,-6.908156E-3,-1.4729542E-2,2.3893423E-3,5.0411444E-2,2.1082124E-2,-2.5263634E-2,-1.2850133E-2,-5.090956E-4,7.7276276E-3,5.288569E-2],"categories":[],"categories_nodes":[],"categories_segments":[],"categories_sizes":[],"default_left":[0,0,0,0,0,0,0,0,0,0,0,0,0,0,0,0,0,0,0,0,0,0,0,0,0,0,0,0,0,0,0,0,0,0,0,0,0,0,0,0,0,0,0,0,0,0,0,0,0,0,0,0,0,0,0,0,0,0,0,0,0,0,0,0,0,0,0,0,0,0,0,0,0,0,0,0,0,0,0,0,0,0,0,0,0,0,0,0,0,0,0,0,0,0,0,0,0,0,0,0,0,0,0,0,0,0,0,0,0,0,0,0,0,0,0,0,0,0,0],"id":8,"left_children":[1,3,5,7,9,11,13,15,17,19,21,23,25,27,29,31,-1,33,35,37,39,41,43,45,47,49,51,53,55,57,59,61,63,65,67,69,71,73,75,77,79,81,83,85,87,89,-1,91,93,95,97,99,101,103,105,107,109,111,113,115,117,-1,-1,-1,-1,-1,-1,-1,-1,-1,-1,-1,-1,-1,-1,-1,-1,-1,-1,-1,-1,-1,-1,-1,-1,-1,-1,-1,-1,-1,-1,-1,-1,-1,-1,-1,-1,-1,-1,-1,-1,-1,-1,-1,-1,-1,-1,-1,-1,-1,-1,-1,-1,-1,-1,-1,-1,-1,-1],"loss_changes":[2.4240654E0,3.2256565E0,3.3106105E0,2.0720248E0,4.6182175E0,4.359517E0,2.938322E0,5.0633507E0,1.6704613E0,4.2836385E0,2.7272534E0,3.9644618E0,2.7368455E0,3.4425583E0,6.545712E0,4.3205013E0,0E0,3.2900298E0,2.0520012E0,4.149742E0,3.8175948E0,1.8981104E0,4.7816863E0,1.9460568E0,2.0930347E0,3.0402918E0,3.5680423E0,1.6486523E0,1.3015537E0,2.9296613E0,4.686222E0,1.9339415E0,6.3614845E-1,4.6060667E0,3.3641176E0,2.4177966E0,3.9474041E0,2.5115464E0,1.7047276E0,2.512665E0,1.8857813E0,5.247123E-1,1.4753084E0,1.9375353E0,2.1222997E0,1.18354E0,0E0,2.5262902E0,6.3771343E-1,1.8602629E0,4.030635E0,1.475373E0,2.321625E0,1.09308E0,1.0604848E0,3.2037249E0,1.4583254E0,5.6566973E0,3.0134218E0,2.2514138E0,3.1492066E0,0E0,0E0,0E0,0E0,0E0,0E0,0E0,0E0,0E0,0E0,0E0,0E0,0E0,0E0,0E0,0E0,0E0,0E0,0E0,0E0,0E0,0E0,0E0,0E0,0E0,0E0,0E0,0E0,0E0,0E0,0E0,0E0,0E0,0E0,0E0,0E0,0E0,0E0,0E0,0E0,0E0,0E0,0E0,0E0,0E0,0E0,0E0,0E0,0E0,0E0,0E0,0E0,0E0,0E0,0E0,0E0,0E0,0E0],"parents":[2147483647,0,0,1,1,2,2,3,3,4,4,5,5,6,6,7,7,8,8,9,9,10,10,11,11,12,12,13,13,14,14,15,15,17,17,18,18,19,19,20,20,21,21,22,22,23,23,24,24,25,25,26,26,27,27,28,28,29,29,30,30,31,31,32,32,33,33,34,34,35,35,36,36,37,37,38,38,39,39,40,40,41,41,42,42,43,43,44,44,45,45,47,47,48,48,49,49,50,50,51,51,52,52,53,53,54,54,55,55,56,56,57,57,58,58,59,59,60,60],"right_children":[2,4,6,8,10,12,14,16,18,20,22,24,26,28,30,32,-1,34,36,38,40,42,44,46,48,50,52,54,56,58,60,62,64,66,68,70,72,74,76,78,80,82,84,86,88,90,-1,92,94,96,98,100,102,104,106,108,110,112,114,116,118,-1,-1,-1,-1,-1,-1,-1,-1,-1,-1,-1,-1,-1,-1,-1,-1,-1,-1,-1,-1,-1,-1,-1,-1,-1,-1,-1,-1,-1,-1,-1,-1,-1,-1,-1,-1,-1,-1,-1,-1,-1,-1,-1,-1,-1,-1,-1,-1,-1,-1,-1,-1,-1,-1,-1,-1,-1,-1],"split_conditions":[3.301848E4,2.35E2,8.6E1,9.5293E2,6.4E1,3.7E1,3.34E2,7.2E1,1E0,3.72E2,2.95E2,3.5E1,4.188191E4,6.5E1,3.45E2,6.4E1,-3.9176986E-2,3.6E1,2.11E2,3.64E2,1.36272E3,9.5293E2,2.12944E3,8.4E1,4.7418E4,7.1E1,4.7418E4,9.2E1,1.08E2,4.43446E4,4.587056E4,2.15E2,1.9E1,3.5E1,5E1,1.95E2,1.447466E4,2.2E1,1.49029E4,3.4E1,3.4E1,8E1,2.9E2,7.4E1,6.46202E3,2.5E1,7.898016E-2,5.5E1,4.6E1,5.4E1,3E0,4.682349E4,2.7E1,3.982863E4,5.3E1,4.002676E4,4.28945E4,3.38E2,3.41E2,3.72E2,3.95E2,7.639547E-3,8.240856E-2,1.1804473E-2,8.594903E-2,3.0896368E-3,5.999482E-2,-1.7392348E-2,-3.126745E-3,6.027499E-4,1.1349502E-2,5.7780133E-3,-1.645344E-2,1.15820505E-2,8.653021E-5,2.9758522E-2,7.694327E-3,-2.3396745E-2,8.949836E-2,-5.161216E-4,-1.3661317E-2,-3.676208E-2,1.1507881E-2,1.1778857E-2,2.92447E-2,5.6506157E-2,1.1562681E-2,-1.0029799E-2,4.25351E-3,1.4739899E-2,1.8743206E-3,3.1712644E-3,6.006668E-2,1.0191278E-1,2.5509292E-2,-3.6991804E-3,-1.8704578E-2,9.033151E-2,2.8012188E-3,8.151915E-3,3.0170087E-2,8.821994E-3,-1.7109012E-2,-8.2759256E-4,-2.7461203E-2,-3.291504E-3,1.4465145E-3,-1.7729284E-2,1.9976052E-2,-6.908156E-3,-1.4729542E-2,2.3893423E-3,5.0411444E-2,2.1082124E-2,-2.5263634E-2,-1.2850133E-2,-5.090956E-4,7.7276276E-3,5.288569E-2],"split_indices":[2,3,3,2,0,0,3,0,1,3,3,0,2,0,3,0,0,3,3,3,2,2,2,3,2,0,2,3,3,2,2,3,3,3,3,3,2,0,2,0,0,0,3,0,2,0,0,3,3,0,3,2,3,2,0,2,2,3,3,3,3,0,0,0,0,0,0,0,0,0,0,0,0,0,0,0,0,0,0,0,0,0,0,0,0,0,0,0,0,0,0,0,0,0,0,0,0,0,0,0,0,0,0,0,0,0,0,0,0,0,0,0,0,0,0,0,0,0,0],"split_type":[0,0,0,0,0,0,0,0,0,0,0,0,0,0,0,0,0,0,0,0,0,0,0,0,0,0,0,0,0,0,0,0,0,0,0,0,0,0,0,0,0,0,0,0,0,0,0,0,0,0,0,0,0,0,0,0,0,0,0,0,0,0,0,0,0,0,0,0,0,0,0,0,0,0,0,0,0,0,0,0,0,0,0,0,0,0,0,0,0,0,0,0,0,0,0,0,0,0,0,0,0,0,0,0,0,0,0,0,0,0,0,0,0,0,0,0,0,0,0],"sum_hessian":[9.247749E3,6.034582E3,3.213167E3,3.5190928E3,2.5154893E3,7.052591E2,2.507908E3,4.31889E1,3.475904E3,1.6856074E3,8.2988184E2,1.8773885E2,5.1752026E2,1.9857493E3,5.221587E2,3.6139484E1,7.0494146E0,1.7411595E3,1.7347444E3,1.4085541E3,2.7705338E2,3.1620865E2,5.1367316E2,1.6579105E2,2.1947813E1,2.6048218E2,2.570381E2,1.384315E3,6.014343E2,8.649813E1,4.3566055E2,2.9415096E1,6.724388E0,2.783585E2,1.462801E3,1.5531381E3,1.8160632E2,1.328877E3,7.9677086E1,3.7575197E0,2.7329584E2,5.7315626E0,3.1047708E2,2.2301962E1,4.9137122E2,1.6461926E2,1.171776E0,1.7325188E1,4.6226254E0,1.8630965E2,7.417253E1,1.7333086E2,8.370721E1,3.680586E1,1.3475092E3,4.8947598E1,5.524867E2,5.609934E1,3.039879E1,3.3335327E2,1.0230726E2,2.8296614E1,1.1184827E0,1.1122683E0,5.6121197E0,2.711075E2,7.2509494E0,9.887799E1,1.3639231E3,1.4257646E3,1.27373505E2,7.809691E1,1.0350941E2,1.16245056E2,1.212632E3,3.8599876E1,4.1077206E1,1.0924714E0,2.6650484E0,9.291501E1,1.8038084E2,4.610064E0,1.1214981E0,2.8062836E2,2.984871E1,1.1968612E1,1.0333351E1,6.688071E1,4.244905E2,6.868273E1,9.593653E1,1.0777069E1,6.548119E0,2.8718343E0,1.7507912E0,9.093465E1,9.5375E1,2.089911E0,7.208262E1,1.5480466E2,1.8526213E1,2.9062454E1,5.4644756E1,1.3603741E1,2.320212E1,9.843199E2,3.6318924E2,2.2768036E1,2.617956E1,3.1566525E2,2.3682146E2,2.3673151E1,3.242619E1,1.7788435E1,1.2610355E1,1.5467226E2,1.7868103E2,9.365773E1,8.649527E0],"tree_param":{"num_deleted":"0","num_feature":"4","num_nodes":"119","size_leaf_vector":"1"}},{"base_weights":[6.2752417E-3,1.8576397E-2,-1.2866613E-2,3.7020512E-2,-1.1051595E-2,-1.4038909E-2,7.987747E-2,3.1053638E-2,1.6333722E-1,-7.2063796E-2,1.0317848E-3,-1.2426708E-1,-3.29197E-3,3.4449138E-2,-2.2181119E-1,1.14322945E-1,5.0065756E-1,1.1185939E-1,-1.5821075E-1,4.269217E-1,-3.9832653E-3,-2.4511802E-1,-4.5765027E-2,-9.852155E-2,5.2970597E-3,-2.8200464E-3,5.5320844E-2,-2.559663E-1,3.537803E-2,5.779321E-1,9.404332E-2,8.7502575E-1,-1.3410265E-3,-1.1515258E-1,2.0607167E-1,2.3916125E-2,-2.675072E-1,5.4544836E-1,-2.0470871E-1,-3.8091436E-2,5.3907953E-2,-4.9182305E-1,-1.8293832E-1,1.8812474E-2,-1.623807E-1,1.113425E-1,-1.2980172E-1,9.464114E-3,-1.4649965E-1,6.911406E-4,-1.7872486E-2,8.109871E-3,2.6432327E-3,-1.9308946E-3,-3.1087413E-2,6.475664E-2,-2.3378123E-2,-1.5176878E-2,1.014222E-2,-3.0702077E-2,9.231028E-2,1.8215377E-2,-3.2727942E-2,1.3662045E-2,-4.1770283E-2,5.897066E-2,1.0794091E-2,5.228898E-3,-2.209982E-2,-3.8816392E-2,-1.7178323E-2,-1.3215533E-2,5.1660348E-2,1.1905526E-2,-2.9683141E-2,1.3675662E-3,-7.7752364E-3,1.2898225E-2,-1.2405068E-3,-2.4224034E-2,-4.195193E-2,-5.7558054E-3,-2.5471605E-2,3.8721945E-2,-6.9617666E-4,1.3706424E-2,-1.8797938E-2,-1.0421626E-2,4.8092127E-2,2.1099601E-2,-1.0534071E-2,2.0273883E-2,5.278884E-4,-1.8881299E-2,2.890602E-2],"categories":[],"categories_nodes":[],"categories_segments":[],"categories_sizes":[],"default_left":[0,0,0,0,0,0,0,0,0,0,0,0,0,0,0,0,0,0,0,0,0,0,0,0,0,0,0,0,0,0,0,0,0,0,0,0,0,0,0,0,0,0,0,0,0,0,0,0,0,0,0,0,0,0,0,0,0,0,0,0,0,0,0,0,0,0,0,0,0,0,0,0,0,0,0,0,0,0,0,0,0,0,0,0,0,0,0,0,0,0,0,0,0,0,0],"id":9,"left_children":[1,3,5,7,9,11,-1,13,15,17,19,21,23,25,27,29,31,33,35,37,39,41,43,45,47,49,51,53,-1,55,57,59,61,63,65,67,69,71,73,75,77,79,81,83,85,87,89,91,93,-1,-1,-1,-1,-1,-1,-1,-1,-1,-1,-1,-1,-1,-1,-1,-1,-1,-1,-1,-1,-1,-1,-1,-1,-1,-1,-1,-1,-1,-1,-1,-1,-1,-1,-1,-1,-1,-1,-1,-1,-1,-1,-1,-1,-1,-1],"loss_changes":[2.1794329E0,3.0794644E0,4.590828E0,2.612525E0,1.5944178E0,4.2858896E0,0E0,2.8560603E0,2.5288901E0,5.6822767E0,3.8592558E0,3.0379968E0,2.6979687E0,2.5472298E0,1.1651578E0,1.241865E0,3.6750145E0,2.4752536E0,4.8611755E0,1.6860149E0,3.5287447E0,1.8480248E0,1.4796262E0,1.8058584E0,1.9154717E0,3.336231E0,2.2217994E0,1.5467043E0,0E0,1.6872965E0,1.6544644E0,5.621484E0,1.0992588E0,4.6014566E0,2.820857E0,1.3686246E0,1.3481274E0,1.9814186E0,3.440547E-1,4.1554213E0,5.5140142E0,1.0256863E-1,1.6793547E0,1.7810534E0,2.17759E0,4.8553014E0,1.0816493E0,1.8621771E0,4.6267138E0,0E0,0E0,0E0,0E0,0E0,0E0,0E0,0E0,0E0,0E0,0E0,0E0,0E0,0E0,0E0,0E0,0E0,0E0,0E0,0E0,0E0,0E0,0E0,0E0,0E0,0E0,0E0,0E0,0E0,0E0,0E0,0E0,0E0,0E0,0E0,0E0,0E0,0E0,0E0,0E0,0E0,0E0,0E0,0E0,0E0,0E0],"parents":[2147483647,0,0,1,1,2,2,3,3,4,4,5,5,7,7,8,8,9,9,10,10,11,11,12,12,13,13,14,14,15,15,16,16,17,17,18,18,19,19,20,20,21,21,22,22,23,23,24,24,25,25,26,26,27,27,29,29,30,30,31,31,32,32,33,33,34,34,35,35,36,36,37,37,38,38,39,39,40,40,41,41,42,42,43,43,44,44,45,45,46,46,47,47,48,48],"right_children":[2,4,6,8,10,12,-1,14,16,18,20,22,24,26,28,30,32,34,36,38,40,42,44,46,48,50,52,54,-1,56,58,60,62,64,66,68,70,72,74,76,78,80,82,84,86,88,90,92,94,-1,-1,-1,-1,-1,-1,-1,-1,-1,-1,-1,-1,-1,-1,-1,-1,-1,-1,-1,-1,-1,-1,-1,-1,-1,-1,-1,-1,-1,-1,-1,-1,-1,-1,-1,-1,-1,-1,-1,-1,-1,-1,-1,-1,-1,-1],"split_conditions":[2.44E2,3.130572E4,8.7E1,2.998352E4,3.436421E4,2.58E2,7.987747E-2,2.958306E4,2.15E2,4.1E1,3.459739E4,2.017419E4,4.96418E3,8.9E1,8.4E1,7E0,2.26E2,6.8E1,9.4E1,7.6E1,6.1E1,3.3E1,2.53E2,2.7E1,8.4E1,2.830009E4,3.7E1,9.4E1,3.537803E-2,6.3E1,2.7E1,3.5E1,6.3E1,3.320484E4,8.6E1,3.397436E4,4.7E1,2.7E1,1.36E2,4.306916E4,7E1,2.5E2,1.242867E4,2.153151E4,2.9E1,3.56E2,2.61E2,2.59E2,4.270163E4,6.911406E-4,-1.7872486E-2,8.109871E-3,2.6432327E-3,-1.9308946E-3,-3.1087413E-2,6.475664E-2,-2.3378123E-2,-1.5176878E-2,1.014222E-2,-3.0702077E-2,9.231028E-2,1.8215377E-2,-3.2727942E-2,1.3662045E-2,-4.1770283E-2,5.897066E-2,1.0794091E-2,5.228898E-3,-2.209982E-2,-3.8816392E-2,-1.7178323E-2,-1.3215533E-2,5.1660348E-2,1.1905526E-2,-2.9683141E-2,1.3675662E-3,-7.7752364E-3,1.2898225E-2,-1.2405068E-3,-2.4224034E-2,-4.195193E-2,-5.7558054E-3,-2.5471605E-2,3.8721945E-2,-6.9617666E-4,1.3706424E-2,-1.8797938E-2,-1.0421626E-2,4.8092127E-2,2.1099601E-2,-1.0534071E-2,2.0273883E-2,5.278884E-4,-1.8881299E-2,2.890602E-2],"split_indices":[3,2,0,2,2,3,0,2,3,0,2,2,2,3,0,3,3,3,3,0,0,0,3,0,0,2,0,3,0,0,3,0,0,2,3,2,0,0,3,2,0,3,2,2,0,3,3,3,2,0,0,0,0,0,0,0,0,0,0,0,0,0,0,0,0,0,0,0,0,0,0,0,0,0,0,0,0,0,0,0,0,0,0,0,0,0,0,0,0,0,0,0,0,0,0],"split_type":[0,0,0,0,0,0,0,0,0,0,0,0,0,0,0,0,0,0,0,0,0,0,0,0,0,0,0,0,0,0,0,0,0,0,0,0,0,0,0,0,0,0,0,0,0,0,0,0,0,0,0,0,0,0,0,0,0,0,0,0,0,0,0,0,0,0,0,0,0,0,0,0,0,0,0,0,0,0,0,0,0,0,0,0,0,0,0,0,0,0,0,0,0,0,0],"sum_hessian":[9.253777E3,5.6335264E3,3.6202507E3,3.4719236E3,2.161603E3,3.6173035E3,2.9471111E0,3.3165063E3,1.5541733E2,3.565125E2,1.8050905E3,3.2040823E2,3.2968953E3,3.2734143E3,4.3092037E1,1.3686859E2,1.8548746E1,1.1362514E2,2.4288737E2,2.0029272E1,1.7850612E3,1.2533591E2,1.9507233E2,2.7188956E2,3.0250059E3,1.1754171E3,2.097997E3,4.167071E1,1.4213264E0,4.583679E0,1.3228491E2,1.0199402E1,8.349343E0,3.326008E1,8.036506E1,9.138632E1,1.5150105E2,1.6979485E1,3.0497887E0,1.1234767E3,6.615845E2,2.3839655E1,1.01496254E2,1.2608804E2,6.898428E1,3.4936306E1,2.3695326E2,2.945096E3,7.990978E1,1.1191774E3,5.623974E1,5.767026E2,1.5212946E3,1.7467213E1,2.4203499E1,3.4924173E0,1.0912619E0,1.5661549E1,1.1662336E2,2.1797442E0,8.019657E0,5.630357E0,2.7189867E0,2.0231983E1,1.3028095E1,6.6483583E0,7.37167E1,8.058213E1,1.0804187E1,1.8537054E1,1.32964E2,2.7759912E0,1.4203493E1,1.1091458E0,1.9406431E0,6.047637E2,5.18713E2,2.4669365E2,4.1489084E2,8.463599E0,1.5376055E1,6.1382896E1,4.0113358E1,5.811206E0,1.2027683E2,1.3830345E1,5.515394E1,2.4229156E1,1.070715E1,5.342761E0,2.316105E2,2.6115696E1,2.9189802E3,6.714946E1,1.2760324E1],"tree_param":{"num_deleted":"0","num_feature":"4","num_nodes":"95","size_leaf_vector":"1"}},{"base_weights":[4.432732E-3,4.014343E-3,6.338576E-1,-4.3382443E-2,8.12074E-3,3.895134E-2,9.109071E-2,2.5693235E-1,-5.596335E-2,8.269519E-2,2.3043358E-3,-2.5873072E-2,2.7067252E-2,-3.45269E-1,4.004796E-1,2.1127438E-2,-9.626349E-2,2.682947E-1,6.235626E-2,-1.4968975E-2,2.1499105E-2,-3.628374E-2,1.1717659E-2,5.084879E-1,-1.0763536E-2,2.9447204E-3,4.3731236E-1,-2.59185E-1,-7.3141314E-2,8.3784655E-2,2.2510245E-1,-2.5076145E-1,8.5726775E-2,2.6075896E-2,-2.9368015E-2,-1.4991261E-1,2.77778E-2,4.125923E-3,4.804618E-2,-3.1205582E-2,2.5064087E-2,2.5207605E-3,-2.2335218E-2,-4.0155277E-3,7.8027904E-2,-2.7300077E-2,-9.086711E-3,-1.5910078E-3,-1.120683E-2,7.570823E-3,3.0700961E-2,-2.2004424E-2,4.7227528E-2,7.46802E-2,5.952886E-3,2.9268905E-3,-1.3221291E-2,-1.0470794E-2,-1.6230477E-3,4.645919E-4,-1.7182564E-2,3.5289574E-2,1.8701006E-3],"categories":[],"categories_nodes":[],"categories_segments":[],"categories_sizes":[],"default_left":[0,0,0,0,0,0,0,0,0,0,0,0,0,0,0,0,0,0,0,0,0,0,0,0,0,0,0,0,0,0,0,0,0,0,0,0,0,0,0,0,0,0,0,0,0,0,0,0,0,0,0,0,0,0,0,0,0,0,0,0,0,0,0],"id":10,"left_children":[1,3,5,7,9,11,-1,13,15,17,19,-1,-1,21,23,25,27,29,31,33,35,-1,-1,37,39,41,43,45,47,-1,49,51,53,55,57,59,61,-1,-1,-1,-1,-1,-1,-1,-1,-1,-1,-1,-1,-1,-1,-1,-1,-1,-1,-1,-1,-1,-1,-1,-1,-1,-1],"loss_changes":[2.4343271E0,1.800372E0,2.073957E0,2.8009853E0,3.691879E0,6.271017E-1,0E0,2.7172499E0,2.2038286E0,2.307922E0,2.6186476E0,0E0,0E0,5.118049E-1,1.0961161E0,1.8460497E0,1.7349668E0,1.9672627E0,4.0923605E0,2.4576755E0,4.0302715E0,0E0,0E0,1.1311893E0,9.9005044E-1,2.1764476E0,3.0786152E0,7.8738356E-1,1.6174352E0,0E0,1.3046408E0,1.6445646E0,2.9189703E0,2.8373606E0,2.6190815E0,1.637398E0,4.531951E0,0E0,0E0,0E0,0E0,0E0,0E0,0E0,0E0,0E0,0E0,0E0,0E0,0E0,0E0,0E0,0E0,0E0,0E0,0E0,0E0,0E0,0E0,0E0,0E0,0E0,0E0],"parents":[2147483647,0,0,1,1,2,2,3,3,4,4,5,5,7,7,8,8,9,9,10,10,13,13,14,14,15,15,16,16,17,17,18,18,19,19,20,20,23,23,24,24,25,25,26,26,27,27,28,28,30,30,31,31,32,32,33,33,34,34,35,35,36,36],"right_children":[2,4,6,8,10,12,-1,14,16,18,20,-1,-1,22,24,26,28,30,32,34,36,-1,-1,38,40,42,44,46,48,-1,50,52,54,56,58,60,62,-1,-1,-1,-1,-1,-1,-1,-1,-1,-1,-1,-1,-1,-1,-1,-1,-1,-1,-1,-1,-1,-1,-1,-1,-1,-1],"split_conditions":[8.8E1,3.2E1,2.058152E4,3.11393E3,5.8E1,9.6E1,9.109071E-2,9.5293E2,1.1E1,5.54308E3,5.4E1,-2.5873072E-2,2.7067252E-2,2.7E1,7.3E1,8.3E1,2.7E1,2.1E1,8.64123E3,1.47E2,7E1,-3.628374E-2,1.1717659E-2,3E1,8E1,4.567188E4,1E0,2.2E1,6.3E1,8.3784655E-2,6.1E1,8.3E1,8.82663E3,5.2E1,4.24874E3,6.2E1,7.2E1,4.125923E-3,4.804618E-2,-3.1205582E-2,2.5064087E-2,2.5207605E-3,-2.2335218E-2,-4.0155277E-3,7.8027904E-2,-2.7300077E-2,-9.086711E-3,-1.5910078E-3,-1.120683E-2,7.570823E-3,3.0700961E-2,-2.2004424E-2,4.7227528E-2,7.46802E-2,5.952886E-3,2.9268905E-3,-1.3221291E-2,-1.0470794E-2,-1.6230477E-3,4.645919E-4,-1.7182564E-2,3.5289574E-2,1.8701006E-3],"split_indices":[0,3,2,2,3,3,0,2,3,2,0,0,0,3,0,0,0,0,2,3,3,0,0,0,0,2,1,3,0,0,0,0,2,0,2,3,3,0,0,0,0,0,0,0,0,0,0,0,0,0,0,0,0,0,0,0,0,0,0,0,0,0,0],"split_type":[0,0,0,0,0,0,0,0,0,0,0,0,0,0,0,0,0,0,0,0,0,0,0,0,0,0,0,0,0,0,0,0,0,0,0,0,0,0,0,0,0,0,0,0,0,0,0,0,0,0,0,0,0,0,0,0,0,0,0,0,0,0,0],"sum_hessian":[9.252557E3,9.247417E3,5.140528E0,7.365426E2,8.510874E3,3.0662565E0,2.0742717E0,2.8833952E1,7.077086E2,6.148187E2,7.896055E3,1.3658842E0,1.7003722E0,5.279679E0,2.3554274E1,2.4311871E2,4.645899E2,5.9516834E1,5.553019E2,4.15616E3,3.739895E3,4.1647286E0,1.1149502E0,1.8467527E1,5.086747E0,2.3390663E2,9.212079E0,5.647205E1,4.0811786E2,1.6778978E0,5.783894E1,3.7892273E1,5.174096E2,1.0791633E3,3.0769968E3,1.3134093E2,3.608554E3,4.486337E0,1.398119E1,2.2439585E0,2.8427887E0,2.1306947E2,2.0837162E1,5.5808425E0,3.631237E0,3.1167223E1,2.5304829E1,2.4358278E2,1.6453508E2,3.5478542E1,2.2360397E1,3.677829E1,1.1139842E0,2.5085437E0,5.1490106E2,1.01501794E3,6.414541E1,2.0043445E2,2.8765625E3,4.4512764E1,8.6828156E1,2.1974962E1,3.586579E3],"tree_param":{"num_deleted":"0","num_feature":"4","num_nodes":"63","size_leaf_vector":"1"}},{"base_weights":[-2.0648155E-3,8.079517E-3,-4.915402E-2,-2.1830056E-2,2.1409273E-2,-6.0517143E-2,7.7726364E-2,-3.486139E-2,3.6371764E-2,4.621442E-1,1.8981172E-2,-6.6022545E-2,2.7133602E-1,2.146758E-1,-1.4565854E-1,-7.836634E-3,-1.029967E-1,9.572698E-2,-2.533156E-2,-1.3098149E-1,6.469047E-1,3.5024017E-2,-2.2691645E-2,-9.978518E-2,-1.777687E-2,8.6459583E-1,-4.1400444E-2,1.5253486E-1,5.541564E-1,5.540317E-1,-2.417732E-1,-3.240959E-2,6.656034E-2,5.2134883E-1,-1.11705884E-1,6.0657305E-1,6.3408844E-2,-3.7473482E-1,3.2204392E-3,-3.7144676E-2,4.655311E-2,9.454625E-1,3.3597836E-1,2.831401E-2,1.6797628E-1,-6.138078E-3,-7.739034E-2,1.2854518E-1,-1.20270796E-1,-9.167124E-2,2.911704E-2,-2.9961048E-2,1.30128E0,3.6189842E-1,-2.822336E-1,2.427291E-1,-1.5473555E-1,7.6096785E-1,-2.9539622E-2,-2.9748155E-2,1.0392165E0,-3.1959817E-1,9.203674E-2,-5.023262E-4,-1.03413295E-2,9.6056685E-3,-5.4291263E-3,7.679003E-2,-2.6444215E-3,-2.0548536E-2,-6.469073E-3,1.6922183E-2,1.1734775E-1,9.9598495E-3,-6.6628435E-4,-9.780638E-3,-4.0159993E-2,2.9061861E-2,-1.4155522E-3,3.8270317E-2,1.0205267E-1,5.162605E-2,-2.1768328E-2,3.999101E-2,2.043277E-3,3.6186557E-2,7.6886537E-3,3.4227152E-4,-1.2395973E-2,-3.9620935E-3,-1.87819E-2,2.36884E-2,5.207927E-3,-7.743051E-3,-1.7592205E-2,-6.15675E-3,-3.659487E-2,3.378808E-2,-1.2501193E-3,1.1476792E-2,1.1308684E-1,3.5653684E-2,2.4303282E-4,-3.0487237E-2,2.952867E-3,8.916743E-3,3.250797E-2,4.6803933E-2,-2.218807E-2,3.08785E-2,1.0838978E-1,1.1167407E-1,2.0963619E-2,-4.2984243E-3,-2.8674198E-2,6.1562505E-2,-1.8228255E-2],"categories":[],"categories_nodes":[],"categories_segments":[],"categories_sizes":[],"default_left":[0,0,0,0,0,0,0,0,0,0,0,0,0,0,0,0,0,0,0,0,0,0,0,0,0,0,0,0,0,0,0,0,0,0,0,0,0,0,0,0,0,0,0,0,0,0,0,0,0,0,0,0,0,0,0,0,0,0,0,0,0,0,0,0,0,0,0,0,0,0,0,0,0,0,0,0,0,0,0,0,0,0,0,0,0,0,0,0,0,0,0,0,0,0,0,0,0,0,0,0,0,0,0,0,0,0,0,0,0,0,0,0,0,0,0,0,0],"id":11,"left_children":[1,3,5,7,9,11,13,15,17,19,21,23,25,27,29,31,33,35,37,39,41,43,45,47,49,51,53,55,57,59,61,63,65,67,69,71,73,75,77,-1,-1,79,81,83,85,87,89,91,93,95,97,-1,99,101,103,105,107,109,-1,-1,111,113,115,-1,-1,-1,-1,-1,-1,-1,-1,-1,-1,-1,-1,-1,-1,-1,-1,-1,-1,-1,-1,-1,-1,-1,-1,-1,-1,-1,-1,-1,-1,-1,-1,-1,-1,-1,-1,-1,-1,-1,-1,-1,-1,-1,-1,-1,-1,-1,-1,-1,-1,-1,-1,-1,-1],"loss_changes":[4.418867E0,3.0349123E0,2.3686056E0,1.7812158E0,5.625843E0,2.768242E0,4.1675754E0,3.5309095E0,1.576592E0,3.2414355E0,3.502297E0,2.4116526E0,4.63006E0,1.6922333E0,3.6298175E0,2.5147617E0,3.0196285E0,3.5818617E0,2.111471E0,2.4085987E0,1.7368698E0,3.3692298E0,1.3182595E0,4.0915585E0,2.1205964E0,5.263359E0,1.7697347E0,2.0488286E0,2.7802362E0,3.4482136E0,1.2348456E0,2.8027606E0,2.928843E0,2.1811628E0,2.1981807E0,4.3662806E0,1.0413413E0,5.5804515E-1,1.6760103E0,0E0,0E0,1.2463846E0,2.9344027E0,1.931745E0,3.6873522E0,1.9067644E0,1.4244978E0,7.7769923E-1,1.5332937E0,8.6176264E-1,7.236229E0,0E0,1.3397303E0,2.775721E-1,4.6805698E-1,1.2826929E0,2.06146E0,1.968451E0,0E0,0E0,1.1672812E0,6.0081244E-1,2.5314298E0,0E0,0E0,0E0,0E0,0E0,0E0,0E0,0E0,0E0,0E0,0E0,0E0,0E0,0E0,0E0,0E0,0E0,0E0,0E0,0E0,0E0,0E0,0E0,0E0,0E0,0E0,0E0,0E0,0E0,0E0,0E0,0E0,0E0,0E0,0E0,0E0,0E0,0E0,0E0,0E0,0E0,0E0,0E0,0E0,0E0,0E0,0E0,0E0,0E0,0E0,0E0,0E0,0E0,0E0],"parents":[2147483647,0,0,1,1,2,2,3,3,4,4,5,5,6,6,7,7,8,8,9,9,10,10,11,11,12,12,13,13,14,14,15,15,16,16,17,17,18,18,19,19,20,20,21,21,22,22,23,23,24,24,25,25,26,26,27,27,28,28,29,29,30,30,31,31,32,32,33,33,34,34,35,35,36,36,37,37,38,38,41,41,42,42,43,43,44,44,45,45,46,46,47,47,48,48,49,49,50,50,52,52,53,53,54,54,55,55,56,56,57,57,60,60,61,61,62,62],"right_children":[2,4,6,8,10,12,14,16,18,20,22,24,26,28,30,32,34,36,38,40,42,44,46,48,50,52,54,56,58,60,62,64,66,68,70,72,74,76,78,-1,-1,80,82,84,86,88,90,92,94,96,98,-1,100,102,104,106,108,110,-1,-1,112,114,116,-1,-1,-1,-1,-1,-1,-1,-1,-1,-1,-1,-1,-1,-1,-1,-1,-1,-1,-1,-1,-1,-1,-1,-1,-1,-1,-1,-1,-1,-1,-1,-1,-1,-1,-1,-1,-1,-1,-1,-1,-1,-1,-1,-1,-1,-1,-1,-1,-1,-1,-1,-1,-1,-1],"split_conditions":[7.4E1,1.610819E4,3.67E2,3.26E2,1.628965E4,4.946555E4,3.88E2,2.35E2,1E0,3.3E1,4.078244E4,8.1E1,8.8E1,8.4E1,4.96418E3,1.79E2,1.9E1,1.63341E3,1.88869E3,2.44E2,5.2E1,3.96397E4,6.1E1,3.3E1,1.44E2,7.7E1,7.8E1,8.2E1,3.459739E4,2.12944E3,4.361028E4,1.44E2,5.7E1,2.71E2,2.47E2,1.36272E3,3.61E2,4.1E1,2.53409E3,-3.7144676E-2,4.655311E-2,1E0,2.52E2,1.6E1,3.982863E4,4.973531E4,3.53E2,1.104635E4,3.25E2,4.838606E4,1.63E2,-2.9961048E-2,3.3E1,3.32E2,8.2E1,3.130572E4,3.71E2,2.65296E4,-2.9539622E-2,-2.9748155E-2,2.71618E3,7.7E1,4.55021E4,-5.023262E-4,-1.03413295E-2,9.6056685E-3,-5.4291263E-3,7.679003E-2,-2.6444215E-3,-2.0548536E-2,-6.469073E-3,1.6922183E-2,1.1734775E-1,9.9598495E-3,-6.6628435E-4,-9.780638E-3,-4.0159993E-2,2.9061861E-2,-1.4155522E-3,3.8270317E-2,1.0205267E-1,5.162605E-2,-2.1768328E-2,3.999101E-2,2.043277E-3,3.6186557E-2,7.6886537E-3,3.4227152E-4,-1.2395973E-2,-3.9620935E-3,-1.87819E-2,2.36884E-2,5.207927E-3,-7.743051E-3,-1.7592205E-2,-6.15675E-3,-3.659487E-2,3.378808E-2,-1.2501193E-3,1.1476792E-2,1.1308684E-1,3.5653684E-2,2.4303282E-4,-3.0487237E-2,2.952867E-3,8.916743E-3,3.250797E-2,4.6803933E-2,-2.218807E-2,3.08785E-2,1.0838978E-1,1.1167407E-1,2.0963619E-2,-4.2984243E-3,-2.8674198E-2,6.1562505E-2,-1.8228255E-2],"split_indices":[0,2,3,3,2,2,3,3,1,0,2,0,3,0,2,3,0,2,2,3,0,2,0,3,3,0,0,0,2,2,2,3,0,3,3,2,3,0,2,0,0,1,3,0,2,2,3,2,3,2,3,0,3,3,0,2,3,2,0,0,2,0,2,0,0,0,0,0,0,0,0,0,0,0,0,0,0,0,0,0,0,0,0,0,0,0,0,0,0,0,0,0,0,0,0,0,0,0,0,0,0,0,0,0,0,0,0,0,0,0,0,0,0,0,0,0,0],"split_type":[0,0,0,0,0,0,0,0,0,0,0,0,0,0,0,0,0,0,0,0,0,0,0,0,0,0,0,0,0,0,0,0,0,0,0,0,0,0,0,0,0,0,0,0,0,0,0,0,0,0,0,0,0,0,0,0,0,0,0,0,0,0,0,0,0,0,0,0,0,0,0,0,0,0,0,0,0,0,0,0,0,0,0,0,0,0,0,0,0,0,0,0,0,0,0,0,0,0,0,0,0,0,0,0,0,0,0,0,0,0,0,0,0,0,0,0,0],"sum_hessian":[9.2486875E3,7.61009E3,1.6385978E3,2.3458308E3,5.264259E3,1.504391E3,1.3420683E2,1.917014E3,4.288167E2,2.780567E1,5.236453E3,1.4806285E3,2.3762394E1,8.322407E1,5.098277E1,1.3733945E3,5.4361945E2,2.1828606E2,2.1053065E2,6.6734285E0,2.113224E1,3.781026E3,1.4554275E3,8.704288E2,6.1019977E2,7.593307E0,1.6169086E1,7.157229E1,1.1651781E1,5.5821157E0,4.5400654E1,1.0328226E3,3.4057187E2,6.669001E0,5.3695044E2,1.1930727E1,2.0635533E2,1.498825E1,1.955424E2,4.724833E0,1.9485955E0,9.739438E0,1.1392802E1,3.600523E3,1.8050291E2,1.1181515E3,3.3727603E2,7.123021E1,7.9919855E2,2.3652853E2,3.7367126E2,1.971518E0,5.621789E0,5.857475E0,1.0311612E1,5.5493206E1,1.607908E1,9.727106E0,1.9246746E0,1.947894E0,3.6342216E0,3.685159E1,8.549063E0,8.312499E2,2.0157277E2,2.3611676E2,1.0445511E2,3.0636191E0,3.6053817E0,7.1474915E1,4.6547556E2,9.420476E0,2.5102518E0,1.0486504E2,1.01490295E2,6.666273E0,8.321977E0,9.732638E0,1.8580975E2,5.843755E0,3.8956833E0,7.2270255E0,4.1657767E0,6.564737E0,3.5939583E3,2.9999195E1,1.5050371E2,1.0486078E3,6.954378E1,2.9649384E2,4.0782185E1,1.6044252E1,5.5185955E1,6.972133E2,1.01985275E2,2.3212315E2,4.4053817E0,3.5755104E1,3.3791614E2,1.1224666E0,4.4993224E0,4.2023497E0,1.655125E0,7.247383E0,3.0642297E0,3.4629623E1,2.0863579E1,1.9414179E0,1.4137663E1,7.5003724E0,2.2267342E0,1.6797719E0,1.9544498E0,7.4814014E0,2.9370188E1,2.236037E0,6.313026E0],"tree_param":{"num_deleted":"0","num_feature":"4","num_nodes":"117","size_leaf_vector":"1"}},{"base_weights":[-5.017453E-4,8.625919E-2,-4.161452E-3,3.6597106E-1,4.605567E-2,-9.179308E-3,3.343595E-2,1.2477207E-1,5.712613E-1,1.0127107E-1,-2.538375E-1,6.386457E-2,-1.2549124E-2,-4.940203E-3,8.373822E-2,7.459319E-2,-6.225548E-2,2.8217766E-1,8.684825E-1,3.5009572E-1,6.484165E-2,-4.0116247E-2,-1.779409E-1,2.3546848E-3,4.2505455E-1,-2.3851763E-2,1.664441E-2,-4.356274E-2,8.3688326E-2,1.8129092E-1,-2.1366943E-3,-1.7658757E-1,2.981158E-1,8.170611E-1,-2.6304424E-1,8.9722395E-2,3.3808148E-1,-8.661118E-2,6.330584E-1,-3.7966377E-1,8.753012E-2,-3.66643E-1,-1.049456E-1,9.470053E-2,-9.411275E-2,4.917581E-1,-3.3983957E-2,-1.4206021E-2,-7.814064E-2,-3.7156317E-1,2.3834942E-2,1.0825669E-2,-1.3392726E-1,1.812179E-1,-7.941487E-2,7.151679E-2,2.6764804E-1,1.5858394E-1,-7.1372144E-2,-2.0397666E-3,-3.6005147E-2,-7.602536E-3,4.768557E-2,2.5477894E-2,1.2015651E-1,-3.6015406E-2,9.9791465E-3,-2.773484E-2,5.1920466E-2,2.1106413E-2,-2.4395978E-2,6.1661977E-2,2.2617297E-4,-1.5844554E-2,-3.7439343E-2,2.1854559E-2,1.9155773E-3,5.2960454E-3,-3.261934E-2,2.0951952E-3,-2.3179313E-2,-3.5963794E-3,1.956163E-2,1.007598E-2,-1.3206243E-2,6.2062193E-2,2.1698527E-2,-5.071871E-3,-4.978795E-4,-4.9776603E-3,-3.4010183E-2,-1.0258834E-2,-3.2953765E-2,1.1022581E-2,1.2476686E-3,5.818671E-3,-1.3843632E-2,-3.608236E-2,-7.5245746E-3,4.354713E-2,8.964068E-3,3.844446E-3,-2.8483119E-2,-2.030502E-2,1.6521651E-2,1.03301685E-2,4.6371188E-2,1.2216931E-3,6.0862802E-2,8.26933E-3,-9.143737E-3],"categories":[],"categories_nodes":[],"categories_segments":[],"categories_sizes":[],"default_left":[0,0,0,0,0,0,0,0,0,0,0,0,0,0,0,0,0,0,0,0,0,0,0,0,0,0,0,0,0,0,0,0,0,0,0,0,0,0,0,0,0,0,0,0,0,0,0,0,0,0,0,0,0,0,0,0,0,0,0,0,0,0,0,0,0,0,0,0,0,0,0,0,0,0,0,0,0,0,0,0,0,0,0,0,0,0,0,0,0,0,0,0,0,0,0,0,0,0,0,0,0,0,0,0,0,0,0,0,0,0,0],"id":12,"left_children":[1,3,5,7,9,11,13,15,17,19,21,23,25,27,29,-1,31,33,35,37,39,-1,41,43,45,47,49,51,53,55,57,59,61,63,65,-1,67,69,71,73,75,77,79,81,83,85,-1,87,89,91,93,95,97,99,101,103,105,107,109,-1,-1,-1,-1,-1,-1,-1,-1,-1,-1,-1,-1,-1,-1,-1,-1,-1,-1,-1,-1,-1,-1,-1,-1,-1,-1,-1,-1,-1,-1,-1,-1,-1,-1,-1,-1,-1,-1,-1,-1,-1,-1,-1,-1,-1,-1,-1,-1,-1,-1,-1,-1],"loss_changes":[2.9374626E0,4.193859E0,1.6749727E0,2.2515812E0,5.4656987E0,1.9286733E0,2.018519E0,3.7788928E0,1.9083652E0,2.4986894E0,1.0005121E0,7.6763296E0,2.471074E0,2.0367973E0,3.7908938E0,0E0,8.6623096E-1,4.3521533E0,1.6605062E0,4.416433E0,2.4926333E0,0E0,5.39271E-1,2.6483278E0,3.168087E0,2.8257334E0,5.844147E0,2.0378432E0,2.8875356E0,1.9890971E0,2.7000434E0,6.9503987E-1,7.562125E-1,2.2305794E0,7.3326874E-1,0E0,1.7428755E0,1.387799E0,2.5636673E0,1.3669324E-1,2.934955E0,3.6804163E-1,8.669422E-1,3.611568E0,2.7467408E0,2.9693718E0,0E0,1.8530852E0,3.5673308E0,5.461769E-1,1.8178153E0,3.4005308E0,1.7685964E0,2.7234342E0,2.6995158E0,4.8784647E0,5.2992496E0,6.7745566E0,1.570134E0,0E0,0E0,0E0,0E0,0E0,0E0,0E0,0E0,0E0,0E0,0E0,0E0,0E0,0E0,0E0,0E0,0E0,0E0,0E0,0E0,0E0,0E0,0E0,0E0,0E0,0E0,0E0,0E0,0E0,0E0,0E0,0E0,0E0,0E0,0E0,0E0,0E0,0E0,0E0,0E0,0E0,0E0,0E0,0E0,0E0,0E0,0E0,0E0,0E0,0E0,0E0,0E0],"parents":[2147483647,0,0,1,1,2,2,3,3,4,4,5,5,6,6,7,7,8,8,9,9,10,10,11,11,12,12,13,13,14,14,16,16,17,17,18,18,19,19,20,20,22,22,23,23,24,24,25,25,26,26,27,27,28,28,29,29,30,30,31,31,32,32,33,33,34,34,36,36,37,37,38,38,39,39,40,40,41,41,42,42,43,43,44,44,45,45,47,47,48,48,49,49,50,50,51,51,52,52,53,53,54,54,55,55,56,56,57,57,58,58],"right_children":[2,4,6,8,10,12,14,16,18,20,22,24,26,28,30,-1,32,34,36,38,40,-1,42,44,46,48,50,52,54,56,58,60,62,64,66,-1,68,70,72,74,76,78,80,82,84,86,-1,88,90,92,94,96,98,100,102,104,106,108,110,-1,-1,-1,-1,-1,-1,-1,-1,-1,-1,-1,-1,-1,-1,-1,-1,-1,-1,-1,-1,-1,-1,-1,-1,-1,-1,-1,-1,-1,-1,-1,-1,-1,-1,-1,-1,-1,-1,-1,-1,-1,-1,-1,-1,-1,-1,-1,-1,-1,-1,-1,-1],"split_conditions":[1.6E1,6.83419E3,4.43446E4,3.86685E3,7.4E1,2.1E1,2.32E2,1.36272E3,8E0,2.5E1,3E0,3.41E2,6.8E1,4.838606E4,4.704662E4,7.459319E-2,6.9E1,5.36113E3,1.3E1,2.1E1,8.82663E3,-4.0116247E-2,1.784269E4,1E0,4.17297E4,6.1E1,1.63341E3,4.682349E4,1.57E2,4.55021E4,2.78E2,5.1E1,8E0,4.96418E3,1E0,8.9722395E-2,4.78194E3,1.9E1,3.496871E4,4.7E1,1.766083E4,5E0,4.022382E4,1.95E2,1.02E2,3.64E2,-3.3983957E-2,2.6E1,3.88E2,1.11E2,6.9E1,1.84E2,2.5E1,4.856361E4,6.4E1,2.77E2,6.9E1,5.006882E4,4.760677E4,-2.0397666E-3,-3.6005147E-2,-7.602536E-3,4.768557E-2,2.5477894E-2,1.2015651E-1,-3.6015406E-2,9.9791465E-3,-2.773484E-2,5.1920466E-2,2.1106413E-2,-2.4395978E-2,6.1661977E-2,2.2617297E-4,-1.5844554E-2,-3.7439343E-2,2.1854559E-2,1.9155773E-3,5.2960454E-3,-3.261934E-2,2.0951952E-3,-2.3179313E-2,-3.5963794E-3,1.956163E-2,1.007598E-2,-1.3206243E-2,6.2062193E-2,2.1698527E-2,-5.071871E-3,-4.978795E-4,-4.9776603E-3,-3.4010183E-2,-1.0258834E-2,-3.2953765E-2,1.1022581E-2,1.2476686E-3,5.818671E-3,-1.3843632E-2,-3.608236E-2,-7.5245746E-3,4.354713E-2,8.964068E-3,3.844446E-3,-2.8483119E-2,-2.030502E-2,1.6521651E-2,1.03301685E-2,4.6371188E-2,1.2216931E-3,6.0862802E-2,8.26933E-3,-9.143737E-3],"split_indices":[3,2,2,2,0,0,3,2,3,0,3,3,0,2,2,0,0,2,3,0,2,0,2,1,2,0,2,2,3,2,3,0,3,2,1,0,2,0,2,0,2,3,2,3,3,3,0,0,3,3,0,3,0,2,0,3,0,2,2,0,0,0,0,0,0,0,0,0,0,0,0,0,0,0,0,0,0,0,0,0,0,0,0,0,0,0,0,0,0,0,0,0,0,0,0,0,0,0,0,0,0,0,0,0,0,0,0,0,0,0,0],"split_type":[0,0,0,0,0,0,0,0,0,0,0,0,0,0,0,0,0,0,0,0,0,0,0,0,0,0,0,0,0,0,0,0,0,0,0,0,0,0,0,0,0,0,0,0,0,0,0,0,0,0,0,0,0,0,0,0,0,0,0,0,0,0,0,0,0,0,0,0,0,0,0,0,0,0,0,0,0,0,0,0,0,0,0,0,0,0,0,0,0,0,0,0,0,0,0,0,0,0,0,0,0,0,0,0,0,0,0,0,0,0,0],"sum_hessian":[9.249149E3,3.7343875E2,8.875711E3,4.5911472E1,3.2752728E2,7.8312817E3,1.0444294E3,2.1848766E1,2.4062706E1,2.771598E2,5.0367493E1,3.445649E2,7.486717E3,5.929575E2,4.514719E2,3.1024563E0,1.874631E1,1.31865635E1,1.0876143E1,3.429611E1,2.4286368E2,9.423748E0,4.0943745E1,2.95285E2,4.927989E1,5.397277E3,2.0894397E3,4.133405E2,1.7961703E2,2.1084447E2,2.4062744E2,1.4618424E1,4.1278853E0,6.404712E0,6.7818513E0,5.945838E0,4.9303055E0,1.3757524E1,2.0538586E1,1.1030175E1,2.3183351E2,1.0298359E1,3.0645386E1,1.5087474E2,1.4441028E2,4.6209938E1,3.0699513E0,4.5840674E3,8.132096E2,3.707607E1,2.0523638E3,2.5858444E2,1.5475607E2,1.123343E2,6.728274E1,9.364034E1,1.1720413E2,7.2059845E1,1.6856758E2,1.0526364E1,4.0920606E0,2.2115211E0,1.9163641E0,4.873799E0,1.530913E0,4.243191E0,2.5386605E0,1.6295198E0,3.3007855E0,5.341594E0,8.41593E0,1.55626745E1,4.975912E0,5.72776E0,5.302416E0,5.319383E1,1.7863968E2,1.3863531E0,8.912005E0,1.9084242E1,1.1561144E1,8.155384E1,6.932089E1,3.7963528E1,1.0644675E2,1.6221073E1,2.9988863E1,5.678376E2,4.0162297E3,7.8962067E2,2.3588915E1,8.985878E0,2.809019E1,1.12297195E2,1.9400665E3,1.9318875E2,6.5395676E1,1.24806E1,1.4227547E2,1.3905123E1,9.842918E1,4.7462933E1,1.9819807E1,2.812314E1,6.5517204E1,8.65351E1,3.0669031E1,6.0007095E1,1.2052751E1,3.6439987E1,1.3212761E2],"tree_param":{"num_deleted":"0","num_feature":"4","num_nodes":"111","size_leaf_vector":"1"}},{"base_weights":[-4.5196344E-3,-2.5274958E-2,7.7079274E-3,1.299669E-1,-3.0231968E-2,3.7501705E-1,6.239808E-3,3.6456415E-1,-1.4525652E-1,-5.1044155E-2,1.7159505E-2,1.81131E-1,9.659255E-1,6.271263E-2,8.1192E-4,1.782134E-1,9.241806E-1,-2.944873E-1,1.0572593E-1,-5.303649E-2,3.763227E-1,-8.6114734E-2,4.3705534E-2,2.6875017E-2,6.7868626E-1,2.7254894E-2,8.5443065E-2,-7.924778E-2,9.354964E-2,1.6678573E-1,-9.084083E-4,2.6329908E-1,-3.6554128E-2,1.215531E0,3.289176E-1,4.693232E-2,-3.7632796E-1,1.1363004E0,-1.3897127E-1,-1.3256103E-1,-4.529842E-2,8.646445E-1,-1.6478704E-1,-2.0560627E-1,1.1136878E-2,3.28431E-1,2.8301693E-2,-1.6337433E-1,3.6858693E-1,8.401241E-2,-2.3848958E-2,1.1295531E-1,-3.6705342E-1,2.6962942E-1,4.954155E-2,8.1499755E-2,6.9501203E-1,-9.166119E-2,1.8629225E-3,8.3288755E-3,5.6660388E-2,3.172815E-2,1.0896287E-1,-1.5578455E-2,7.18238E-2,-3.2480843E-2,2.0816015E-2,4.9980916E-3,1.2984739E-1,4.918897E-3,-1.9475374E-2,-1.5166908E-2,3.3009762E-3,2.5148466E-4,-4.4545354E-3,3.3089325E-3,8.461575E-2,2.146765E-2,-3.384865E-2,1.0985268E-2,-2.5435392E-2,-3.319383E-2,4.08033E-3,9.3481325E-2,1.6638601E-2,3.515112E-2,1.230092E-3,2.160936E-2,-3.7998572E-2,6.519297E-2,-2.9905785E-2,-7.856729E-3,1.980173E-2,-3.2822818E-2,3.2245256E-2,1.1903961E-2,5.6816336E-2,5.4399637E-3,-3.6355425E-2,2.1630054E-2,-9.5135765E-3,7.842861E-2,6.3639255E-3,2.1191634E-2,-1.0406436E-2,2.562734E-4,-1.3757174E-2],"categories":[],"categories_nodes":[],"categories_segments":[],"categories_sizes":[],"default_left":[0,0,0,0,0,0,0,0,0,0,0,0,0,0,0,0,0,0,0,0,0,0,0,0,0,0,0,0,0,0,0,0,0,0,0,0,0,0,0,0,0,0,0,0,0,0,0,0,0,0,0,0,0,0,0,0,0,0,0,0,0,0,0,0,0,0,0,0,0,0,0,0,0,0,0,0,0,0,0,0,0,0,0,0,0,0,0,0,0,0,0,0,0,0,0,0,0,0,0,0,0,0,0,0,0,0,0],"id":13,"left_children":[1,3,5,7,9,11,13,15,17,19,21,23,25,27,29,31,33,35,37,39,41,43,45,47,49,-1,-1,51,53,55,57,59,-1,61,63,-1,65,67,69,71,73,75,77,79,81,83,85,87,89,-1,-1,91,93,95,97,99,101,103,105,-1,-1,-1,-1,-1,-1,-1,-1,-1,-1,-1,-1,-1,-1,-1,-1,-1,-1,-1,-1,-1,-1,-1,-1,-1,-1,-1,-1,-1,-1,-1,-1,-1,-1,-1,-1,-1,-1,-1,-1,-1,-1,-1,-1,-1,-1,-1,-1],"loss_changes":[2.346444E0,2.6415613E0,3.135247E0,6.9129906E0,3.277744E0,2.4768937E0,1.7766607E0,5.846476E0,1.8890731E0,1.9857755E0,2.7851617E0,1.4138376E0,1.590538E-1,2.2323117E0,1.5103168E0,2.6474395E0,2.056075E0,2.5983076E0,5.007971E0,1.4086823E0,3.0059483E0,2.4170098E0,3.5333955E0,1.0538552E0,2.2810245E0,0E0,0E0,5.088653E0,3.225705E0,2.3879585E0,1.31699E0,2.920037E0,0E0,1.1035986E0,2.2315054E0,0E0,1.2124577E0,2.3026695E0,4.2277032E-1,2.5101748E0,1.4379644E0,1.2167239E0,9.020425E-1,4.435453E0,2.29163E0,3.7704906E0,4.013988E0,1.7750399E0,2.5645278E0,0E0,0E0,1.8520677E0,2.2566295E0,4.3906617E0,4.1581435E0,2.0994093E0,1.4970064E0,2.7736025E0,1.4638854E0,0E0,0E0,0E0,0E0,0E0,0E0,0E0,0E0,0E0,0E0,0E0,0E0,0E0,0E0,0E0,0E0,0E0,0E0,0E0,0E0,0E0,0E0,0E0,0E0,0E0,0E0,0E0,0E0,0E0,0E0,0E0,0E0,0E0,0E0,0E0,0E0,0E0,0E0,0E0,0E0,0E0,0E0,0E0,0E0,0E0,0E0,0E0,0E0],"parents":[2147483647,0,0,1,1,2,2,3,3,4,4,5,5,6,6,7,7,8,8,9,9,10,10,11,11,12,12,13,13,14,14,15,15,16,16,17,17,18,18,19,19,20,20,21,21,22,22,23,23,24,24,27,27,28,28,29,29,30,30,31,31,33,33,34,34,36,36,37,37,38,38,39,39,40,40,41,41,42,42,43,43,44,44,45,45,46,46,47,47,48,48,51,51,52,52,53,53,54,54,55,55,56,56,57,57,58,58],"right_children":[2,4,6,8,10,12,14,16,18,20,22,24,26,28,30,32,34,36,38,40,42,44,46,48,50,-1,-1,52,54,56,58,60,-1,62,64,-1,66,68,70,72,74,76,78,80,82,84,86,88,90,-1,-1,92,94,96,98,100,102,104,106,-1,-1,-1,-1,-1,-1,-1,-1,-1,-1,-1,-1,-1,-1,-1,-1,-1,-1,-1,-1,-1,-1,-1,-1,-1,-1,-1,-1,-1,-1,-1,-1,-1,-1,-1,-1,-1,-1,-1,-1,-1,-1,-1,-1,-1,-1,-1,-1],"split_conditions":[1.49E2,2E1,4.6294E2,2.93977E4,6.6E1,3.37E2,5.36113E3,2.284397E4,4.229853E4,5.054819E4,1.104635E4,7.2E1,4E1,1.95E2,1.52E2,1.33E2,1E0,1.6E1,4.326284E4,1.3E1,5.8E1,6.4E1,6.7E1,2.84E2,8.2E1,2.7254894E-2,8.5443065E-2,1.78E2,2.36E2,7.9E1,2E1,1E2,-3.6554128E-2,4.7E1,2.598367E4,4.693232E-2,1.36E2,3.5E1,5.2E1,3.590799E4,4.4E1,1E1,1E0,1.9E1,6.8E1,1.1E1,1.218857E4,2.1E2,3.16E2,8.401241E-2,-2.3848958E-2,1.6E2,8.3E1,7.4E1,8.3E1,4.6E1,3.034471E4,1.83E2,5.006882E4,8.3288755E-3,5.6660388E-2,3.172815E-2,1.0896287E-1,-1.5578455E-2,7.18238E-2,-3.2480843E-2,2.0816015E-2,4.9980916E-3,1.2984739E-1,4.918897E-3,-1.9475374E-2,-1.5166908E-2,3.3009762E-3,2.5148466E-4,-4.4545354E-3,3.3089325E-3,8.461575E-2,2.146765E-2,-3.384865E-2,1.0985268E-2,-2.5435392E-2,-3.319383E-2,4.08033E-3,9.3481325E-2,1.6638601E-2,3.515112E-2,1.230092E-3,2.160936E-2,-3.7998572E-2,6.519297E-2,-2.9905785E-2,-7.856729E-3,1.980173E-2,-3.2822818E-2,3.2245256E-2,1.1903961E-2,5.6816336E-2,5.4399637E-3,-3.6355425E-2,2.1630054E-2,-9.5135765E-3,7.842861E-2,6.3639255E-3,2.1191634E-2,-1.0406436E-2,2.562734E-4,-1.3757174E-2],"split_indices":[3,0,2,2,0,3,2,2,2,2,2,0,0,3,3,3,1,0,2,3,3,3,0,3,0,0,0,3,3,0,0,3,0,3,2,0,3,3,3,2,3,3,1,3,0,3,2,3,3,0,0,3,0,0,0,0,2,3,2,0,0,0,0,0,0,0,0,0,0,0,0,0,0,0,0,0,0,0,0,0,0,0,0,0,0,0,0,0,0,0,0,0,0,0,0,0,0,0,0,0,0,0,0,0,0,0,0],"split_type":[0,0,0,0,0,0,0,0,0,0,0,0,0,0,0,0,0,0,0,0,0,0,0,0,0,0,0,0,0,0,0,0,0,0,0,0,0,0,0,0,0,0,0,0,0,0,0,0,0,0,0,0,0,0,0,0,0,0,0,0,0,0,0,0,0,0,0,0,0,0,0,0,0,0,0,0,0,0,0,0,0,0,0,0,0,0,0,0,0,0,0,0,0,0,0,0,0,0,0,0,0,0,0,0,0,0,0],"sum_hessian":[9.243954E3,3.426564E3,5.8173896E3,1.0524732E2,3.3213167E3,2.2146357E1,5.795243E3,5.664185E1,4.860547E1,2.307771E3,1.0135456E3,1.7658775E1,4.4875817E0,5.0724213E2,5.288001E3,4.348119E1,1.3160661E1,3.0372849E1,1.8232622E1,2.2979343E3,9.836786E0,2.0679391E2,8.0675165E2,1.4284268E1,3.3745067E0,1.6942625E0,2.7933192E0,9.0241035E1,4.1700107E2,5.3263832E1,5.2347373E3,3.9088783E1,4.3924055E0,8.136339E0,5.0243216E0,1.9377565E0,2.8435091E1,2.7993002E0,1.5433322E1,2.0234038E2,2.095594E3,4.8563166E0,4.980469E0,9.228752E1,1.145064E2,4.0362755E1,7.663889E2,9.510922E0,4.773346E0,2.252742E0,1.1217647E0,5.4471363E1,3.5769672E1,8.23571E1,3.3464398E2,4.6853313E1,6.4105186E0,1.5416664E2,5.080571E3,3.0789942E1,8.298843E0,2.5161884E0,5.620151E0,3.0719838E0,1.9523377E0,2.6474997E1,1.9600953E0,1.398016E0,1.4012842E0,5.8966403E0,9.536681E0,1.4499121E2,5.7349174E1,4.7092255E2,1.6246714E3,1.4644916E0,3.3918252E0,1.9352411E0,3.0452282E0,2.5350496E1,6.693703E1,9.165381E0,1.0534102E2,3.0863202E0,3.7276436E1,1.9155388E1,7.472335E2,4.1772885E0,5.333634E0,2.8082595E0,1.9650866E0,2.2439367E1,3.2031994E1,3.3273724E1,2.4959464E0,6.818353E1,1.4173565E1,3.216662E2,1.2977778E1,2.3315477E1,2.3537834E1,3.6174643E0,2.7930543E0,1.667295E1,1.3749368E2,5.0392876E3,4.12833E1],"tree_param":{"num_deleted":"0","num_feature":"4","num_nodes":"107","size_leaf_vector":"1"}},{"base_weights":[-3.230695E-3,8.1662685E-3,-2.4665592E-2,-1.05099045E-2,3.421473E-2,3.3607785E-2,-4.1120365E-2,1.9585034E-1,-1.3153726E-2,5.292286E-3,9.2627324E-2,1.5795845E-1,-1.2095975E-2,-5.81198E-2,2.3258256E-2,3.4043178E-1,-3.8871545E-2,-3.4287855E-2,8.020795E-3,2.6724547E-2,-1.0417649E-1,1.6152696E-1,4.9705803E-2,1.054666E-1,5.267101E-1,-1.0079915E-1,4.3533154E-2,-3.3328746E-2,-1.2370322E-1,2.6020244E-1,-2.496635E-2,-1.11508824E-1,5.696586E-1,6.090458E-2,-5.255069E-2,1.9314425E-2,-8.872595E-2,1.3850097E-2,2.3633999E-1,7.373289E-1,-1.1890669E-1,-3.553604E-1,1.719394E-1,4.635805E-1,2.9557282E-2,9.279404E-2,7.52859E-2,1.7309138E-1,7.792209E-1,-3.9389595E-2,-2.9443365E-1,9.629303E-2,-1.04714945E-1,-2.3852544E-1,-2.7750336E-2,-9.6449E-2,-1.9052431E-1,3.8501424E-1,2.0922164E-2,-8.050181E-2,1.527579E-1,1.3106574E-2,-3.747666E-2,2.7614811E-2,7.143788E-2,2.9396056E-3,5.6096695E-2,-1.6934732E-2,-2.996544E-3,-4.3174656E-4,5.90469E-3,5.6016585E-3,-1.5999991E-2,1.10424785E-2,6.416506E-5,2.8105998E-2,7.3945546E-3,-2.313204E-2,8.343322E-2,-1.0037036E-2,2.3441631E-2,-3.6425877E-2,1.101906E-2,8.33735E-3,1.856266E-2,-2.8428024E-2,4.087916E-2,-9.7338725E-3,4.101187E-3,1.4017551E-2,1.7715251E-3,3.7884805E-2,-1.3334901E-2,1.4286751E-2,8.146417E-2,-9.660143E-3,1.1805563E-2,-2.5175186E-3,-2.8850831E-2,-2.2566532E-4,1.4801302E-2,8.380335E-3,-1.6646879E-2,-2.0831631E-2,2.9908648E-2,1.3784324E-2,-2.4278495E-3,-8.462961E-3,6.664871E-2,-2.0512346E-2,-6.118057E-3,2.3468817E-3,4.701929E-2,2.0054508E-2,-2.479565E-2,-1.2476841E-2,-4.6919318E-4,7.3657786E-3,4.937964E-2],"categories":[],"categories_nodes":[],"categories_segments":[],"categories_sizes":[],"default_left":[0,0,0,0,0,0,0,0,0,0,0,0,0,0,0,0,0,0,0,0,0,0,0,0,0,0,0,0,0,0,0,0,0,0,0,0,0,0,0,0,0,0,0,0,0,0,0,0,0,0,0,0,0,0,0,0,0,0,0,0,0,0,0,0,0,0,0,0,0,0,0,0,0,0,0,0,0,0,0,0,0,0,0,0,0,0,0,0,0,0,0,0,0,0,0,0,0,0,0,0,0,0,0,0,0,0,0,0,0,0,0,0,0,0,0,0,0,0,0],"id":14,"left_children":[1,3,5,7,9,11,13,15,17,19,21,23,25,27,29,31,-1,33,35,37,39,41,43,45,47,49,51,53,55,57,59,61,63,65,67,69,71,73,75,77,79,81,83,85,87,89,-1,91,93,95,97,99,101,103,105,107,109,111,113,115,117,-1,-1,-1,-1,-1,-1,-1,-1,-1,-1,-1,-1,-1,-1,-1,-1,-1,-1,-1,-1,-1,-1,-1,-1,-1,-1,-1,-1,-1,-1,-1,-1,-1,-1,-1,-1,-1,-1,-1,-1,-1,-1,-1,-1,-1,-1,-1,-1,-1,-1,-1,-1,-1,-1,-1,-1,-1,-1],"loss_changes":[2.2590075E0,2.9374564E0,3.0793054E0,1.9214051E0,4.259135E0,4.022053E0,2.741259E0,4.776505E0,1.5546811E0,3.9617264E0,2.4610615E0,3.6256852E0,2.5613372E0,3.2165437E0,5.990533E0,3.9644203E0,0E0,3.025718E0,1.8983954E0,3.8070774E0,3.5148149E0,1.7835283E0,4.2882695E0,1.8163792E0,1.9588938E0,2.3668494E0,2.5064056E0,1.6404016E0,9.705372E-1,2.6394567E0,4.31608E0,1.5883355E0,1.5888252E0,4.1519303E0,3.1755986E0,2.3171601E0,3.7145057E0,2.3073363E0,1.519505E0,2.2634294E0,1.796632E0,5.063553E-1,1.4162445E0,1.8460755E0,1.980855E0,1.079461E0,0E0,1.3777148E0,2.2137423E0,2.712723E0,1.1172428E0,2.3679867E0,2.1628926E0,1.0595505E0,1.3763587E0,6.3605657E0,1.3905449E0,4.9607143E0,2.813015E0,2.1209278E0,2.8082306E0,0E0,0E0,0E0,0E0,0E0,0E0,0E0,0E0,0E0,0E0,0E0,0E0,0E0,0E0,0E0,0E0,0E0,0E0,0E0,0E0,0E0,0E0,0E0,0E0,0E0,0E0,0E0,0E0,0E0,0E0,0E0,0E0,0E0,0E0,0E0,0E0,0E0,0E0,0E0,0E0,0E0,0E0,0E0,0E0,0E0,0E0,0E0,0E0,0E0,0E0,0E0,0E0,0E0,0E0,0E0,0E0,0E0,0E0],"parents":[2147483647,0,0,1,1,2,2,3,3,4,4,5,5,6,6,7,7,8,8,9,9,10,10,11,11,12,12,13,13,14,14,15,15,17,17,18,18,19,19,20,20,21,21,22,22,23,23,24,24,25,25,26,26,27,27,28,28,29,29,30,30,31,31,32,32,33,33,34,34,35,35,36,36,37,37,38,38,39,39,40,40,41,41,42,42,43,43,44,44,45,45,47,47,48,48,49,49,50,50,51,51,52,52,53,53,54,54,55,55,56,56,57,57,58,58,59,59,60,60],"right_children":[2,4,6,8,10,12,14,16,18,20,22,24,26,28,30,32,-1,34,36,38,40,42,44,46,48,50,52,54,56,58,60,62,64,66,68,70,72,74,76,78,80,82,84,86,88,90,-1,92,94,96,98,100,102,104,106,108,110,112,114,116,118,-1,-1,-1,-1,-1,-1,-1,-1,-1,-1,-1,-1,-1,-1,-1,-1,-1,-1,-1,-1,-1,-1,-1,-1,-1,-1,-1,-1,-1,-1,-1,-1,-1,-1,-1,-1,-1,-1,-1,-1,-1,-1,-1,-1,-1,-1,-1,-1,-1,-1,-1,-1,-1,-1,-1,-1,-1,-1],"split_conditions":[3.301848E4,2.35E2,8.6E1,9.5293E2,6.4E1,3.7E1,3.34E2,7.2E1,1E0,3.72E2,2.95E2,3.5E1,3.982863E4,6.7E1,3.45E2,4E1,-3.8871545E-2,3.6E1,2.11E2,3.64E2,1.36272E3,9.5293E2,2.12944E3,8.4E1,1E0,3.824991E4,4.7418E4,9.2E1,4.530763E4,4.43446E4,4.587056E4,3.1E1,6.4E1,3.5E1,5E1,1.5E2,1.447466E4,2.2E1,1.49029E4,3.4E1,3.208168E4,8E1,2.68E2,6.6E1,6.46202E3,2.5E1,7.52859E-2,4.229853E4,4.040905E4,7E1,5E1,4.361028E4,2.7E1,4.946555E4,9.7E1,4.508808E4,4.779103E4,3.38E2,3.41E2,3.72E2,3.95E2,1.3106574E-2,-3.747666E-2,2.7614811E-2,7.143788E-2,2.9396056E-3,5.6096695E-2,-1.6934732E-2,-2.996544E-3,-4.3174656E-4,5.90469E-3,5.6016585E-3,-1.5999991E-2,1.10424785E-2,6.416506E-5,2.8105998E-2,7.3945546E-3,-2.313204E-2,8.343322E-2,-1.0037036E-2,2.3441631E-2,-3.6425877E-2,1.101906E-2,8.33735E-3,1.856266E-2,-2.8428024E-2,4.087916E-2,-9.7338725E-3,4.101187E-3,1.4017551E-2,1.7715251E-3,3.7884805E-2,-1.3334901E-2,1.4286751E-2,8.146417E-2,-9.660143E-3,1.1805563E-2,-2.5175186E-3,-2.8850831E-2,-2.2566532E-4,1.4801302E-2,8.380335E-3,-1.6646879E-2,-2.0831631E-2,2.9908648E-2,1.3784324E-2,-2.4278495E-3,-8.462961E-3,6.664871E-2,-2.0512346E-2,-6.118057E-3,2.3468817E-3,4.701929E-2,2.0054508E-2,-2.479565E-2,-1.2476841E-2,-4.6919318E-4,7.3657786E-3,4.937964E-2],"split_indices":[2,3,3,2,0,0,3,0,1,3,3,0,2,0,3,0,0,3,3,3,2,2,2,3,1,2,2,3,2,2,2,0,0,3,3,3,2,0,2,0,2,0,3,0,2,0,0,2,2,0,0,2,3,2,3,2,2,3,3,3,3,0,0,0,0,0,0,0,0,0,0,0,0,0,0,0,0,0,0,0,0,0,0,0,0,0,0,0,0,0,0,0,0,0,0,0,0,0,0,0,0,0,0,0,0,0,0,0,0,0,0,0,0,0,0,0,0,0,0],"split_type":[0,0,0,0,0,0,0,0,0,0,0,0,0,0,0,0,0,0,0,0,0,0,0,0,0,0,0,0,0,0,0,0,0,0,0,0,0,0,0,0,0,0,0,0,0,0,0,0,0,0,0,0,0,0,0,0,0,0,0,0,0,0,0,0,0,0,0,0,0,0,0,0,0,0,0,0,0,0,0,0,0,0,0,0,0,0,0,0,0,0,0,0,0,0,0,0,0,0,0,0,0,0,0,0,0,0,0,0,0,0,0,0,0,0,0,0,0,0,0],"sum_hessian":[9.245308E3,6.036377E3,3.208931E3,3.516046E3,2.520331E3,7.063613E2,2.5025696E3,4.3552227E1,3.4724937E3,1.6864111E3,8.339199E2,1.8918127E2,5.1718005E2,1.9798732E3,5.2269635E2,3.6654583E1,6.897644E0,1.7375945E3,1.7348993E3,1.4109293E3,2.7548184E2,3.190318E2,5.148881E2,1.6673285E2,2.2448437E1,1.9902063E2,3.1815942E2,1.4378591E3,5.4201404E2,8.764931E1,4.3504703E2,1.2507837E1,2.4146746E1,2.7932376E2,1.4582708E3,1.5542642E3,1.8063504E2,1.3302898E3,8.06395E1,3.8953102E0,2.7158655E2,5.6456456E0,3.1338614E2,2.2880812E1,4.920073E2,1.6550148E2,1.2313612E0,1.005408E1,1.2394357E1,1.5201407E2,4.700656E1,2.3490851E2,8.3250916E1,3.6949436E1,1.4009098E3,3.8672464E2,1.552894E2,5.720261E1,3.0446693E1,3.31886E2,1.0316104E2,7.5154114E0,4.992426E0,1.7106642E1,7.040105E0,2.7179254E2,7.5312095E0,9.7697235E1,1.3605735E3,1.0936736E3,4.6059058E2,7.832165E1,1.023134E2,1.1717849E2,1.2131113E3,3.9365063E1,4.127444E1,1.0753075E0,2.8200026E0,2.6317545E2,8.411079E0,4.508866E0,1.1367801E0,1.7505855E2,1.3832759E2,1.6953312E0,2.118548E1,6.6446014E1,4.2556128E2,6.9393684E1,9.61078E1,4.939948E0,5.1141315E0,4.8030977E0,7.591259E0,1.0476218E2,4.7251884E1,1.2434464E1,3.4572098E1,1.1897287E2,1.15935646E2,2.926653E1,5.3984383E1,3.533835E1,1.6110886E0,2.911895E1,1.3717908E3,3.8126642E2,5.4582148E0,8.729643E1,6.799296E1,2.3690905E1,3.3511703E1,1.8038546E1,1.2408148E1,1.5333392E2,1.7855208E2,9.419377E1,8.967274E0],"tree_param":{"num_deleted":"0","num_feature":"4","num_nodes":"119","size_leaf_vector":"1"}},{"base_weights":[5.968205E-3,1.7632078E-2,-1.2220183E-2,3.540386E-2,-1.0977502E-2,-1.3358822E-2,7.450825E-2,2.9663462E-2,1.5622698E-1,-5.2174997E-2,6.700102E-3,-1.20511584E-1,-2.9706252E-3,3.291955E-2,-2.160276E-1,1.0964461E-1,4.7131255E-1,2.3710078E-2,-1.0176781E-1,-8.915772E-2,2.5665632E-2,-2.3928119E-1,-4.4082686E-2,-9.4756976E-2,5.2586948E-3,-2.8165113E-3,5.2871756E-2,-2.4998538E-1,3.4140002E-2,5.4665875E-1,9.017547E-2,8.121168E-1,-2.5269513E-3,-5.4513983E-2,1.7319337E-1,-1.636869E-1,4.49256E-2,1.9290155E-1,-2.2354804E-1,5.551034E-2,-6.000577E-2,-4.8626095E-1,-1.7789198E-1,-2.7622433E-2,-3.798186E-2,1.8604089E-2,-1.5017235E-1,9.24543E-3,-1.4130335E-1,6.57299E-4,-1.7419076E-2,-1.6647492E-2,4.240493E-3,-1.862113E-3,-3.0598342E-2,6.0762387E-2,-2.3076518E-2,-1.4798014E-2,9.712439E-3,-3.0333687E-2,8.458245E-2,2.4871033E-2,-2.2899924E-2,1.682476E-3,-1.5930995E-2,5.1244486E-2,4.476532E-3,-2.7617319E-2,-1.0158771E-2,-5.568542E-3,1.9070562E-2,5.6886885E-2,1.0306257E-2,4.8959157E-3,-1.959639E-2,1.2564985E-3,8.563023E-3,-8.609778E-3,3.0271783E-3,-2.3779094E-2,-4.1607194E-2,-5.5795535E-3,-2.4952583E-2,-4.270241E-3,2.1339566E-2,-9.765489E-3,2.4263898E-2,-5.8643217E-3,-1.65311E-2,-1.7826665E-3,2.0654334E-3,-1.8355416E-2,2.7354607E-2],"categories":[],"categories_nodes":[],"categories_segments":[],"categories_sizes":[],"default_left":[0,0,0,0,0,0,0,0,0,0,0,0,0,0,0,0,0,0,0,0,0,0,0,0,0,0,0,0,0,0,0,0,0,0,0,0,0,0,0,0,0,0,0,0,0,0,0,0,0,0,0,0,0,0,0,0,0,0,0,0,0,0,0,0,0,0,0,0,0,0,0,0,0,0,0,0,0,0,0,0,0,0,0,0,0,0,0,0,0,0,0,0,0],"id":15,"left_children":[1,3,5,7,9,11,-1,13,15,17,19,21,23,25,27,29,31,33,35,37,39,41,43,45,47,49,51,53,-1,55,57,59,61,63,65,67,69,71,73,75,77,79,81,83,-1,85,87,89,91,-1,-1,-1,-1,-1,-1,-1,-1,-1,-1,-1,-1,-1,-1,-1,-1,-1,-1,-1,-1,-1,-1,-1,-1,-1,-1,-1,-1,-1,-1,-1,-1,-1,-1,-1,-1,-1,-1,-1,-1,-1,-1,-1,-1],"loss_changes":[1.9643275E0,2.8686595E0,4.1561704E0,2.408977E0,1.5751039E0,4.0234423E0,0E0,2.6657763E0,2.2615247E0,2.4461894E0,2.7546442E0,2.8892803E0,2.4904108E0,2.339379E0,1.1075854E0,1.1300112E0,3.231112E0,3.0199592E0,3.5761333E0,9.530434E0,3.2368786E0,1.8065357E0,1.4745789E0,1.7069778E0,1.7694885E0,3.1277215E0,2.1350756E0,1.4891346E0,0E0,1.5356606E0,1.5391906E0,4.92357E0,1.0485073E0,2.0675104E0,5.093645E0,1.5470777E0,2.947939E0,2.4472554E0,1.8697548E0,2.1317549E0,1.8041109E0,1.0552406E-1,1.6027439E0,1.754165E0,0E0,4.1240907E0,9.0460634E-1,1.7804668E0,4.286931E0,0E0,0E0,0E0,0E0,0E0,0E0,0E0,0E0,0E0,0E0,0E0,0E0,0E0,0E0,0E0,0E0,0E0,0E0,0E0,0E0,0E0,0E0,0E0,0E0,0E0,0E0,0E0,0E0,0E0,0E0,0E0,0E0,0E0,0E0,0E0,0E0,0E0,0E0,0E0,0E0,0E0,0E0,0E0,0E0],"parents":[2147483647,0,0,1,1,2,2,3,3,4,4,5,5,7,7,8,8,9,9,10,10,11,11,12,12,13,13,14,14,15,15,16,16,17,17,18,18,19,19,20,20,21,21,22,22,23,23,24,24,25,25,26,26,27,27,29,29,30,30,31,31,32,32,33,33,34,34,35,35,36,36,37,37,38,38,39,39,40,40,41,41,42,42,43,43,45,45,46,46,47,47,48,48],"right_children":[2,4,6,8,10,12,-1,14,16,18,20,22,24,26,28,30,32,34,36,38,40,42,44,46,48,50,52,54,-1,56,58,60,62,64,66,68,70,72,74,76,78,80,82,84,-1,86,88,90,92,-1,-1,-1,-1,-1,-1,-1,-1,-1,-1,-1,-1,-1,-1,-1,-1,-1,-1,-1,-1,-1,-1,-1,-1,-1,-1,-1,-1,-1,-1,-1,-1,-1,-1,-1,-1,-1,-1,-1,-1,-1,-1,-1,-1],"split_conditions":[2.44E2,3.130572E4,8.7E1,2.998352E4,7.2E1,2.58E2,